tree
version=v4
num_class=1
num_tree_per_iteration=1
label_index=0
max_feature_idx=9
objective=binary sigmoid:1
feature_names=G2 G1 absences studytime Walc romantic famsup freetime Medu health
feature_infos=[0:19] [5:19] [0:75] [1:4] [1:5] [0:1] [0:1] [1:5] [0:4] [1:5]
tree_sizes=843 758 652 862 762 869 973 659 866 763 659 872 975 870 767 977 972 758 864 760 861 972 866 1281 1511 1516 1513 1516 1404 1520 1514 1513 1517 1486 1511 1412 1404 1512 1400 1511 1507 1512 1519 1610 1605 1592 1594 1609 1501 1507 1600 1419 1513 1399 1404 1613 1613 1589 1297 1511 1599 1495 1629 1612 1512 1501 1617 1624 1619 1517 1508 1519 1625 1726 1499 1389 1628 1517 1506 1512 1631 1601 1618 1516 1631 1618 1615 1533 1712 1620 1603 1582 1732 1614 1641 1617 1703 1504 1379 1593

Tree=0
num_leaves=7
num_cat=0
split_feature=0 0 1 1 0 0
split_gain=256.81 10.5172 0.680929 0.228111 7.10543e-15 1.77636e-15
threshold=13.500000000000002 12.500000000000002 14.500000000000002 12.500000000000002 10.500000000000002 11.500000000000002
decision_type=2 2 2 2 2 2
left_child=1 3 -2 4 -1 -6
right_child=2 -3 -4 -5 5 -7
leaf_value=0.724840427748081 0.44552040211934518 0.64008124755729223 0.41758839955647142 0.71087442646664423 0.724840427748081 0.724840427748081
leaf_weight=27.438751727342606 3.9454414248466483 5.2008091509342185 8.0702210962772352 3.9454414248466483 3.9454414248466474 4.1247796714305878
leaf_count=153 22 29 45 22 22 23
internal_value=0.652889 0.713735 0.42676 0.723444 0.72484 0.72484
internal_weight=0 44.6552 12.0157 39.4544 35.509 8.07022
internal_count=316 249 67 220 198 45
is_linear=0
shrinkage=0.55102


Tree=1
num_leaves=6
num_cat=0
split_feature=0 0 6 1 0
split_gain=180.19 9.66041 0.370032 0.229132 7.10543e-15
threshold=13.500000000000002 12.500000000000002 1.0000000180025095e-35 12.500000000000002 10.500000000000002
decision_type=2 2 2 2 2
left_child=1 3 -2 4 -1
right_child=2 -3 -4 -5 -6
leaf_value=0.057981860980276009 -0.1449673005289101 -0.0094401161780794662 -0.13021263893634316 0.046019546141211648 0.057981860980276009
leaf_weight=25.52218396961689 8.203785687685011 5.2649641484022132 6.264529436826705 3.7235051691532126 7.5065246969461432
leaf_count=153 38 29 29 22 45
internal_value=0 0.0484735 -0.138579 0.0567699 0.0579819
internal_weight=0 42.0172 14.4683 36.7522 33.0287
internal_count=316 249 67 220 198
is_linear=0
shrinkage=0.0457143


Tree=2
num_leaves=5
num_cat=0
split_feature=0 0 7 1
split_gain=138.269 8.92241 0.353392 0.233626
threshold=13.500000000000002 12.500000000000002 3.5000000000000004 12.500000000000002
decision_type=2 2 2 2
left_child=1 3 -2 -1
right_child=2 -3 -4 -5
leaf_value=0.084142982092247021 -0.17713723021665731 -0.012505818184072023 -0.15653416868812123 0.065607358092071022
leaf_weight=30.618189722299576 9.226008325815199 5.3217491060495368 6.6244270801544181 3.5105421543121329
leaf_count=198 39 29 28 22
internal_value=0 0.0694559 -0.168527 0.0822364
internal_weight=0 39.4505 15.8504 34.1287
internal_count=316 249 67 220
is_linear=0
shrinkage=0.0680556


Tree=3
num_leaves=7
num_cat=0
split_feature=0 0 1 1 6 1
split_gain=110.833 8.27936 0.333208 0.240883 0.00266178 7.10543e-15
threshold=13.500000000000002 12.500000000000002 14.500000000000002 12.500000000000002 1.0000000180025095e-35 6.5000000000000009
decision_type=2 2 2 2 2 2
left_child=1 3 -2 5 -4 -1
right_child=2 -3 4 -5 -6 -7
leaf_value=0.076762711257278293 -0.12233789354577267 -0.010397662277079505 -0.14067380214458605 0.058654004199834027 -0.14265025343169774 0.07676271125727846
leaf_weight=3.4305335283279481 5.4078911393880871 5.3720879256725302 6.190629765391348 3.3079761266708365 4.9396232515573502 24.871368080377579
leaf_count=24 22 29 25 22 20 174
internal_value=0 0.0624818 -0.135268 0.0748676 -0.141551 0.0767627
internal_weight=0 36.982 16.5381 31.6099 11.1303 28.3019
internal_count=316 249 67 220 45 198
is_linear=0
shrinkage=0.0634983


Tree=4
num_leaves=6
num_cat=0
split_feature=0 0 1 1 6
split_gain=91.1632 7.71294 0.286006 0.250399 0.00132375
threshold=13.500000000000002 12.500000000000002 14.500000000000002 12.500000000000002 1.0000000180025095e-35
decision_type=2 2 2 2 2
left_child=1 3 -2 -1 -4
right_child=2 -3 4 -5 -6
leaf_value=0.052671475903166454 -0.075788152861354693 -0.0064928510814330495 -0.087728987784220586 0.039342790629067904 -0.0886992748176086
leaf_weight=26.09605693817139 5.493268862366679 5.4167753010988227 6.2485405057668668 3.1166659891605368 4.9997614324092865
leaf_count=198 22 29 25 22 20
internal_value=0 0.0422174 -0.0841007 0.0512495 -0.0881603
internal_weight=0 34.6295 16.7416 29.2127 11.2483
internal_count=316 249 67 220 45
is_linear=0
shrinkage=0.0444444


Tree=5
num_leaves=7
num_cat=0
split_feature=0 0 6 1 0 0
split_gain=76.2464 7.20881 0.278885 0.261794 7.10543e-15 1.77636e-15
threshold=13.500000000000002 12.500000000000002 1.0000000180025095e-35 12.500000000000002 9.5000000000000018 11.500000000000002
decision_type=2 2 2 2 2 2
left_child=1 3 -2 4 -1 -6
right_child=2 -3 -4 -5 5 -7
leaf_value=0.057464932706905905 -0.090356328966275157 -0.0064387727331188102 -0.077449331562653642 0.041855895818360772 0.057464932706905947 0.057464932706905926
leaf_weight=13.82426199316979 9.4109005481004733 5.4564957320690146 7.1938526183366767 2.9370431602001181 7.3971928209066373 2.7891054898500443
leaf_count=114 38 29 29 22 61 23
internal_value=0 0.0452895 -0.0847645 0.0557637 0.0574649 0.0574649
internal_weight=0 32.4041 16.6048 26.9476 24.0106 10.1863
internal_count=316 249 67 220 198 84
is_linear=0
shrinkage=0.0493506


Tree=6
num_leaves=8
num_cat=0
split_feature=0 0 1 1 6 0 0
split_gain=64.495 6.75563 0.305548 0.274763 0.00264564 3.55271e-15 3.55271e-15
threshold=13.500000000000002 12.500000000000002 14.500000000000002 12.500000000000002 1.0000000180025095e-35 10.500000000000002 6.5000000000000009
decision_type=2 2 2 2 2 2 2
left_child=1 3 -2 5 -4 6 -1
right_child=2 -3 4 -5 -6 -7 -8
leaf_value=0.059550548854797984 -0.072130517878978312 -0.0060584488347542251 -0.086531047968119848 0.042190190257641744 -0.088163626096727038 0.059550548854798213 0.059550548854798213
leaf_weight=3.7864557802677288 5.3952586501836803 5.4918429702520362 5.9978021681308729 2.7692177891731253 4.840494766831398 5.011485591530799 13.252595230937002
leaf_count=34 22 29 25 22 20 45 119
internal_value=0 0.0460775 -0.0822318 0.0576136 -0.0872602 0.0595505 0.0595505
internal_weight=0 30.3116 16.2336 24.8198 10.8383 22.0505 17.0391
internal_count=316 249 67 220 45 198 153
is_linear=0
shrinkage=0.0519481


Tree=7
num_leaves=5
num_cat=0
split_feature=0 0 6 1
split_gain=84.8562 7.33237 0.348527 0.254921
threshold=13.500000000000002 12.500000000000002 1.0000000180025095e-35 12.500000000000002
decision_type=2 2 2 2
left_child=1 3 -2 -1
right_child=2 -3 -4 -5
leaf_value=0.019440654581373458 -0.032927174825864124 -0.0023344051577194932 -0.028071265414487817 0.014271857394945658
leaf_weight=24.221257880330089 9.4878742694854754 5.432075858116149 7.2378121316432944 2.9761514365673056
leaf_count=198 38 29 29 22
internal_value=0 0.0153441 -0.0308258 0.018875
internal_weight=0 32.6295 16.7257 27.1974
internal_count=316 249 67 220
is_linear=0
shrinkage=0.0166667


Tree=8
num_leaves=7
num_cat=0
split_feature=0 0 7 1 0 7
split_gain=59.9347 6.51449 0.288273 0.281693 3.55271e-15 1.77636e-15
threshold=13.500000000000002 12.500000000000002 3.5000000000000004 12.500000000000002 9.5000000000000018 3.5000000000000004
decision_type=2 2 2 2 2 2
left_child=1 3 -2 4 5 -1
right_child=2 -3 -4 -5 -6 -7
leaf_value=0.055918590031541995 -0.081403782479903042 -0.0054751253469118213 -0.068034265400685634 0.038958599829835114 0.055918590031542065 0.055918590031542051
leaf_weight=7.0657348409295171 9.3088641464710253 5.5056228488683692 6.7325419932603827 2.6764838099479666 8.8585332334041578 4.9565602615475655
leaf_count=67 39 29 28 22 84 47
internal_value=0 0.0427264 -0.0757926 0.0539917 0.0559186 0.0559186
internal_weight=0 29.0629 16.0414 23.5573 20.8808 12.0223
internal_count=316 249 67 220 198 114
is_linear=0
shrinkage=0.0492188


Tree=9
num_leaves=6
num_cat=0
split_feature=0 0 1 1 6
split_gain=51.2295 6.12293 0.311993 0.296775 0.000538125
threshold=13.500000000000002 12.500000000000002 14.500000000000002 12.500000000000002 1.0000000180025095e-35
decision_type=2 2 2 2 2
left_child=1 3 -2 -1 -4
right_child=2 -3 4 -5 -6
leaf_value=0.071554324489177201 -0.079208951948753631 -0.0063511101609721281 -0.097972492586740234 0.048290050137963156 -0.098902242922281031
leaf_weight=19.127387836575515 5.2058655619621268 5.5356163829565039 5.676294878125189 2.5270243734121314 4.5777168869972229
leaf_count=198 22 29 25 22 20
internal_value=0 0.0535314 -0.0919295 0.0688394 -0.0983876
internal_weight=0 27.19 15.4599 21.6544 10.254
internal_count=316 249 67 220 45
is_linear=0
shrinkage=0.0638021


Tree=10
num_leaves=5
num_cat=0
split_feature=0 0 6 1
split_gain=44.0334 5.76251 0.322541 0.3128
threshold=13.500000000000002 12.500000000000002 1.0000000180025095e-35 12.500000000000002
decision_type=2 2 2 2
left_child=1 3 -2 -1
right_child=2 -3 -4 -5
leaf_value=0.049271736131725363 -0.066175502444013018 -0.0039615443712983454 -0.052933354278747791 0.032125970981829621
leaf_weight=17.498089626431472 8.3536490499973279 5.5623715072870246 6.4299208521842948 2.3887019902467719
leaf_count=198 38 29 29 22
internal_value=0 0.0360273 -0.060416 0.0472123
internal_weight=0 25.4492 14.7836 19.8868
internal_count=316 249 67 220
is_linear=0
shrinkage=0.0444444


Tree=11
num_leaves=7
num_cat=0
split_feature=0 0 1 1 6 0
split_gain=53.0198 6.18188 0.296629 0.291427 0.000628105 3.55271e-15
threshold=13.500000000000002 12.500000000000002 14.500000000000002 12.500000000000002 1.0000000180025095e-35 5.5000000000000009
decision_type=2 2 2 2 2 2
left_child=1 3 -2 5 -4 -1
right_child=2 -3 4 -5 -6 -7
leaf_value=0.023692575657162734 -0.026917723691964577 -0.0022046283997974214 -0.032923990568526372 0.016098332733753416 -0.033254264163034876 0.023692575657162845
leaf_weight=2.2329568639397719 5.2591276019811621 5.5230784565210334 5.7495626807212812 2.5509331822395316 4.6352032572031021 16.989889182150364
leaf_count=23 22 29 25 22 20 175
internal_value=0 0.017743 -0.0310027 0.0228029 -0.0330714 0.0236926
internal_weight=0 27.2969 15.6439 21.7738 10.3848 19.2228
internal_count=316 249 67 220 45 198
is_linear=0
shrinkage=0.0211111


Tree=12
num_leaves=8
num_cat=0
split_feature=0 0 1 1 6 0 2
split_gain=40.3565 5.55535 0.341489 0.321946 0.000899543 3.55271e-15 3.55271e-15
threshold=13.500000000000002 12.500000000000002 14.500000000000002 12.500000000000002 1.0000000180025095e-35 11.500000000000002 5.5000000000000009
decision_type=2 2 2 2 2 2 2
left_child=1 3 -2 5 -4 6 -1
right_child=2 -3 4 -5 -6 -7 -8
leaf_value=0.046979741031364292 -0.047181329237134653 -0.0036006735497020048 -0.060661225110893217 0.029974268999390503 -0.061497645693946001 0.046979741031364278 0.046979741031364299
leaf_weight=9.1716400533914619 4.9233531951904288 5.5745831727981559 5.2139938026666623 2.310288578271865 4.2476027458906174 1.9177065566182143 5.4196054860949525
leaf_count=110 22 29 25 22 20 23 65
internal_value=0 0.0338103 -0.0562946 0.0448921 -0.0610367 0.0469797 0.0469797
internal_weight=0 24.3938 14.3849 18.8192 9.4616 16.509 14.5912
internal_count=316 249 67 220 45 198 175
is_linear=0
shrinkage=0.0426667


Tree=13
num_leaves=7
num_cat=0
split_feature=0 0 1 1 6 1
split_gain=34.8844 5.23383 0.3508 0.339132 0.000581718 3.55271e-15
threshold=13.500000000000002 12.500000000000002 14.500000000000002 12.500000000000002 1.0000000180025095e-35 11.500000000000002
decision_type=2 2 2 2 2 2
left_child=1 3 -2 5 -4 -1
right_child=2 -3 4 -5 -6 -7
leaf_value=0.053675406298700164 -0.051007295257750246 -0.0037223233670377631 -0.067226444259983087 0.032942991717041889 -0.068026384132949605 0.053675406298700129
leaf_weight=13.476037792861465 4.737795576453208 5.5971677750349036 4.9006816595792753 2.1888215094804755 3.9994248747825623 1.5988519415259368
leaf_count=177 22 29 25 22 20 21
internal_value=0 0.0376373 -0.0618265 0.0510468 -0.0675859 0.0536754
internal_weight=0 22.8609 13.6379 17.2637 8.90011 15.0749
internal_count=316 249 67 220 45 198
is_linear=0
shrinkage=0.0492187


Tree=14
num_leaves=6
num_cat=0
split_feature=0 0 6 1 0
split_gain=30.2289 4.93188 0.365741 0.356723 3.55271e-15
threshold=13.500000000000002 12.500000000000002 1.0000000180025095e-35 12.500000000000002 11.500000000000002
decision_type=2 2 2 2 2
left_child=1 3 -2 4 -1
right_child=2 -3 -4 -5 -6
leaf_value=0.021574818354924277 -0.026934014340132942 -0.0013530699941801322 -0.020155145373662375 0.012702819498330005 0.021574818354924245
leaf_weight=12.154818885028362 7.2420593202114087 5.6173536032438269 5.6351887881755829 2.0771406888961783 1.5974904820322997
leaf_count=175 38 29 29 22 23
internal_value=0 0.0147103 -0.0239675 0.0204106 0.0215748
internal_weight=0 21.4468 12.8772 15.8295 13.7523
internal_count=316 249 67 220 198
is_linear=0
shrinkage=0.0199546


Tree=15
num_leaves=8
num_cat=0
split_feature=0 0 1 1 6 0 1
split_gain=26.2984 4.57806 0.413935 0.374519 0.000934229 3.55271e-15 1.77636e-15
threshold=12.500000000000002 13.500000000000002 14.500000000000002 12.500000000000002 1.0000000180025095e-35 11.500000000000002 10.500000000000002
decision_type=2 2 2 2 2 2 2
left_child=3 -2 -3 5 -4 6 -1
right_child=1 2 4 -5 -6 -7 -8
leaf_value=0.030653486412170704 -0.0017377179903029288 -0.025797577978631289 -0.036539564707068602 0.017266313823181594 -0.037166906394772541 0.030653486412170666 0.030653486412170673
leaf_weight=9.1797983646392769 5.6354077160358456 4.3120303452014905 4.2607203423976898 1.9746612757444371 3.5543318092823029 1.4561059474945075 1.8992686271667487
leaf_count=145 29 22 25 22 20 23 30
internal_value=0 -0.023016 -0.0329039 0.0288316 -0.0368249 0.0306535 0.0306535
internal_weight=0 17.7625 12.1271 14.5098 7.81505 12.5352 11.0791
internal_count=316 96 67 220 45 198 175
is_linear=0
shrinkage=0.0285714


Tree=16
num_leaves=8
num_cat=0
split_feature=0 0 6 1 1 0 2
split_gain=22.9817 4.33203 1.94259 0.392323 0.00423501 1.77636e-15 1.77636e-15
threshold=12.500000000000002 14.500000000000002 1.0000000180025095e-35 12.500000000000002 15.500000000000002 11.500000000000002 14.500000000000002
decision_type=2 2 2 2 2 2 2
left_child=3 2 -2 5 -3 6 -1
right_child=1 4 -4 -5 -6 -7 -8
leaf_value=0.049326788203960609 -0.032560800651491605 -0.060167391888126504 0.01132539992031335 0.026507021528781389 -0.058054252921729485 0.049326788203960532 0.049326788203960532
leaf_weight=8.8800270184874517 4.6697380542755145 3.5063604563474637 4.0252855122089386 1.8807902336120594 4.8369684517383575 1.3262378014624125 1.2109127752482898
leaf_count=154 25 20 21 22 30 23 21
internal_value=0 -0.0351112 -0.0122441 0.0460993 -0.0589423 0.0493268 0.0493268
internal_weight=0 17.0384 8.69502 13.298 8.34333 11.4172 10.0909
internal_count=316 96 46 220 50 198 175
is_linear=0
shrinkage=0.0462963


Tree=17
num_leaves=6
num_cat=0
split_feature=0 0 7 1 0
split_gain=20.1155 3.98173 0.444634 0.409933 1.77636e-15
threshold=13.500000000000002 12.500000000000002 3.5000000000000004 12.500000000000002 11.500000000000002
decision_type=2 2 2 2 2
left_child=1 3 -2 4 -1
right_child=2 -3 -4 -5 -6
leaf_value=0.083383880869859595 -0.09832690393490863 -0.002284839652508253 -0.065941604152965766 0.042628965729589102 0.083383880869859511
leaf_weight=9.1847935691475904 6.1205428689718229 5.7152966558933249 4.608860582113266 1.7949387878179539 1.2071442976593978
leaf_count=175 39 29 28 22 23
internal_value=0 0.0519478 -0.0844157 0.0773813 0.0833839
internal_weight=0 17.9022 10.7294 12.1869 10.3919
internal_count=316 249 67 220 198
is_linear=0
shrinkage=0.07875


Tree=18
num_leaves=7
num_cat=0
split_feature=0 0 2 1 1 0
split_gain=17.5388 3.99711 1.60906 0.427149 0.00227402 1.77636e-15
threshold=12.500000000000002 14.500000000000002 3.5000000000000004 12.500000000000002 15.500000000000002 5.5000000000000009
decision_type=2 2 2 2 2 2
left_child=3 2 -2 5 -3 -1
right_child=1 4 -4 -5 -6 -7
leaf_value=0.061886551245709784 0.013971538386716442 -0.072693235089291014 -0.037027194944943602 0.030015773817471024 -0.070581762777957968 0.061886551245709985
leaf_weight=1.0980890877544904 4.1828500628471357 3.0534088611602774 4.3700700998306274 1.7165319323539723 4.1663176119327545 8.3550256676971895
leaf_count=23 22 20 24 22 30 175
internal_value=0 -0.0392704 -0.012086 0.0569887 -0.0714748 0.0618866
internal_weight=0 15.7726 8.55292 11.1696 7.21973 9.45311
internal_count=316 96 46 220 50 198
is_linear=0
shrinkage=0.0587755


Tree=19
num_leaves=6
num_cat=0
split_feature=0 0 3 1 1
split_gain=15.4809 3.41233 0.916273 0.443776 0.00378083
threshold=13.500000000000002 12.500000000000002 1.5000000000000002 12.500000000000002 15.500000000000002
decision_type=2 2 2 2 2
left_child=1 3 -2 -1 -4
right_child=2 -3 4 -5 -6
leaf_value=0.044561121093283147 -0.021985148990649264 -0.00019653547319575313 -0.052084140103041292 0.020447069212863767 -0.050056909196829744
leaf_weight=8.5945167839527183 2.743399575352667 5.7775143384933463 3.6565454751253128 1.6450144946575154 3.0551003664731979
leaf_count=198 18 29 25 22 24
internal_value=0 0.02594 -0.0426958 0.0406871 -0.0511614
internal_weight=0 16.017 9.45505 10.2395 6.71165
internal_count=316 249 67 220 49
is_linear=0
shrinkage=0.0425347


Tree=20
num_leaves=7
num_cat=0
split_feature=0 0 3 1 1 0
split_gain=17.8482 3.63334 0.837697 0.418625 0.00472756 3.55271e-15
threshold=13.500000000000002 12.500000000000002 1.5000000000000002 12.500000000000002 15.500000000000002 6.5000000000000009
decision_type=2 2 2 2 2 2
left_child=1 3 -2 5 -4 -1
right_child=2 -3 4 -5 -6 -7
leaf_value=0.0262889428942083 -0.014944225675605327 -0.00036004169542339429 -0.031323030647429972 0.012881317295263312 -0.030045263522826611 0.026288942894208397
leaf_weight=1.5852813944220594 2.9483670443296415 5.7521650642156592 3.9453002065420151 1.7278730571269978 3.3433400839567184 7.6466514319181442
leaf_count=34 18 29 25 22 24 164
internal_value=0 0.0157303 -0.0261885 0.0241752 -0.0307369 0.0262889
internal_weight=0 16.712 10.237 10.9598 7.28864 9.23193
internal_count=316 249 67 220 49 198
is_linear=0
shrinkage=0.025


Tree=21
num_leaves=8
num_cat=0
split_feature=0 0 3 1 1 0 2
split_gain=14.122 3.28117 0.881892 0.451457 0.00286258 1.77636e-15 1.77636e-15
threshold=13.500000000000002 12.500000000000002 1.5000000000000002 12.500000000000002 15.500000000000002 11.500000000000002 10.500000000000002
decision_type=2 2 2 2 2 2 2
left_child=1 3 -2 5 -4 6 -1
right_child=2 -3 4 -5 -6 -7 -8
leaf_value=0.046285847488764222 -0.022482442464117954 -0.00031411908073695566 -0.053499634721606432 0.020520432368369552 -0.051611676354875173 0.046285847488764208 0.046285847488764222
leaf_weight=5.6566063314676303 2.7204365432262403 5.7711258679628363 3.4666422232985497 1.6047114580869664 2.8979940414428711 0.92929961159825314 1.4141515828669069
leaf_count=140 18 29 25 22 24 23 35
internal_value=0 0.0261062 -0.0436096 0.0419811 -0.05264 0.0462858 0.0462858
internal_weight=0 15.3759 9.08507 9.60477 6.36464 8.00006 7.07076
internal_count=316 249 67 220 49 198 175
is_linear=0
shrinkage=0.0443333


Tree=22
num_leaves=7
num_cat=0
split_feature=0 0 6 1 1 0
split_gain=12.2925 3.60884 1.6105 0.466761 0.000960109 8.88178e-16
threshold=12.500000000000002 14.500000000000002 1.0000000180025095e-35 12.500000000000002 15.500000000000002 10.500000000000002
decision_type=2 2 2 2 2 2
left_child=3 2 -2 5 -3 -1
right_child=1 4 -4 -5 -6 -7
leaf_value=0.056580978257277044 -0.030247510452181076 -0.064143588429062273 0.017735419740520311 0.023625700355050162 -0.062743912178450115 0.056580978257277044
leaf_weight=5.6158733144402522 4.4315097182989103 2.519529625773429 3.8905597180128098 1.5431663095951078 3.4240309074521065 1.6517274454236028
leaf_count=153 25 20 21 22 30 45
internal_value=0 -0.0309478 -0.00781554 0.050809 -0.0633372 0.056581
internal_weight=0 14.2656 8.32207 8.81077 5.94356 7.2676
internal_count=316 96 46 220 50 198
is_linear=0
shrinkage=0.0544218


Tree=23
num_leaves=11
num_cat=0
split_feature=0 4 0 5 2 3 0 1 0 6
split_gain=10.8489 3.23106 5.81759 1.25127 2.79268 0.910458 0.156499 0.00228908 0.000313738 6.29168e-05
threshold=13.500000000000002 1.5000000000000002 11.500000000000002 1.0000000180025095e-35 5.5000000000000009 1.5000000000000002 12.500000000000002 15.500000000000002 10.500000000000002 1.0000000180025095e-35
decision_type=2 2 2 2 2 2 2 2 2 2
left_child=1 2 9 4 -3 -2 8 -7 -5 -1
right_child=5 3 -4 6 -6 7 -8 -9 -10 -11
leaf_value=0.06444714420063416 -0.026524120605069007 0.076413825245173664 -0.076883642409751138 0.064447144200634326 -0.029482391967542234 -0.072918256449012384 0.086242043406481894 -0.070356798356240299 0.065790909220336397 0.06515058586730188
leaf_weight=1.3665844127535849 2.5137185081839553 2.0764451920986162 2.3705136105418205 2.3665242269635205 1.799938231706619 3.0199688002467155 2.2011918425559998 2.4438173323869705 0.93983329087495793 0.76943029463291157
leaf_count=41 18 30 23 71 32 25 11 24 21 20
internal_value=0 0.033529 -0.00977525 0.0543254 0.0272426 -0.0575148 0.0733872 -0.0717726 0.0648291 0.0647005
internal_weight=0 13.8905 4.50653 9.38393 3.87638 7.9775 5.50755 5.46379 3.30636 2.13601
internal_count=316 249 84 165 62 67 103 49 92 61
is_linear=0
shrinkage=0.0622222


Tree=24
num_leaves=13
num_cat=0
split_feature=0 0 1 2 1 1 0 2 5 5 1 4
split_gain=9.84482 3.1352 1.27052 1.24838 0.0013283 0.000532528 9.94884e-06 4.43374e-06 9.31478e-06 6.11314e-08 1.02943e-10 3.91434e-11
threshold=12.500000000000002 14.500000000000002 13.500000000000002 3.5000000000000004 12.500000000000002 15.500000000000002 11.500000000000002 5.5000000000000009 1.0000000180025095e-35 1.0000000180025095e-35 9.5000000000000018 1.5000000000000002
decision_type=2 2 2 2 2 2 2 2 2 2 2 2
left_child=2 3 4 -2 6 -3 7 9 -9 -1 11 -11
right_child=1 5 -4 -5 -6 -7 -8 8 -10 10 -12 -13
leaf_value=0.051467530629742721 0.013445741090535365 -0.057131227126871277 -0.019778726705128053 -0.025774044500834918 0.053712171670566737 -0.056097797054683207 0.051704698776668785 0.051698088810998931 0.051482500649255365 0.051482419386495289 0.051482033653715523 0.051482937285337337
leaf_weight=0.95943935960531535 3.9661150425672513 2.1567714139819136 0.67731931060552586 4.1119028031826019 0.78849854320287693 2.9191564172506332 0.77735369838774193 0.84785808250308048 1.2099705375730991 0.63520439341664336 0.87698922120034684 0.84719562530517578
leaf_count=32 22 20 10 24 12 30 23 25 40 21 29 28
internal_value=0 -0.0258196 0.0454236 -0.00651806 0.0517849 -0.0565369 0.0515379 0.0515138 0.0515713 0.0514781 0.0514825 0.0514827
internal_weight=0 13.1539 7.61983 8.07802 6.94251 5.07593 6.15401 5.37666 2.05783 3.31883 2.35939 1.4824
internal_count=316 96 220 46 210 50 198 175 65 110 78 49
is_linear=0
shrinkage=0.049875


Tree=25
num_leaves=13
num_cat=0
split_feature=0 0 6 1 1 1 0 2 5 5 1 4
split_gain=8.60078 2.96419 1.25971 1.19882 0.000969332 0.000381177 7.30164e-06 3.25195e-06 6.83009e-06 4.48291e-08 7.59428e-11 2.87743e-11
threshold=12.500000000000002 14.500000000000002 1.0000000180025095e-35 13.500000000000002 12.500000000000002 15.500000000000002 11.500000000000002 5.5000000000000009 1.0000000180025095e-35 1.0000000180025095e-35 9.5000000000000018 1.5000000000000002
decision_type=2 2 2 2 2 2 2 2 2 2 2 2
left_child=3 2 -2 4 6 -3 7 9 -9 -1 11 -11
right_child=1 5 -4 -5 -6 -7 -8 8 -10 10 -12 -13
leaf_value=0.066137129188431315 -0.031236548139219437 -0.072633542186258004 0.019611969145073623 -0.022142051603003768 0.068727329104508766 -0.071456056932453313 0.066411986716855734 0.066404228643308749 0.066154472496132627 0.066154381064731552 0.06615393217969022 0.066154981871658761
leaf_weight=0.87064376473427119 4.3208284899592382 1.9771418645977963 3.7704464644193649 0.70052605122327793 0.71843000128865231 2.6711852550506592 0.70571154914796341 0.7697100471705195 1.0980182439088821 0.57643213123083137 0.79584528319537629 0.76880957931280136
leaf_count=32 25 20 21 10 12 30 23 25 40 21 29 28
internal_value=0 -0.031045 -0.00754169 0.0576385 0.0665046 -0.0719569 0.0662187 0.0661908 0.0662574 0.0661494 0.0661544 0.0661547
internal_weight=0 12.7396 8.09127 7.00413 6.3036 4.64833 5.58517 4.87946 1.86773 3.01173 2.14109 1.34524
internal_count=316 96 46 220 210 50 198 175 65 110 78 49
is_linear=0
shrinkage=0.0642857


Tree=26
num_leaves=13
num_cat=0
split_feature=0 0 1 2 1 1 0 2 5 5 1 4
split_gain=7.51521 2.79398 1.13588 1.03744 0.00070845 0.000273881 5.36363e-06 2.38771e-06 5.01301e-06 3.29035e-08 5.52927e-11 2.08813e-11
threshold=12.500000000000002 14.500000000000002 13.500000000000002 3.5000000000000004 12.500000000000002 15.500000000000002 11.500000000000002 5.5000000000000009 1.0000000180025095e-35 1.0000000180025095e-35 9.5000000000000018 1.5000000000000002
decision_type=2 2 2 2 2 2 2 2 2 2 2 2
left_child=2 3 4 -2 6 -3 7 9 -9 -1 11 -11
right_child=1 5 -4 -5 -6 -7 -8 8 -10 10 -12 -13
leaf_value=0.051071213163833729 0.012912485270868246 -0.055555648166722531 -0.014963817504298541 -0.022742760403510708 0.052868744175100846 -0.054747616919729597 0.051262690245365672 0.051257225645963203 0.051083296117137467 0.051083229327181214 0.051082917556143526 0.051083645406041656
leaf_weight=0.78984284400940219 3.9692607298493368 1.8099491894245137 0.72119642794132222 4.1217528656125069 0.65412576496601094 2.4413779601454735 0.64046346768736828 0.6985381133854387 0.99613988026976585 0.52294848114252068 0.72200312279164802 0.69747700542211533
leaf_count=32 22 20 10 24 12 30 23 25 40 21 29 28
internal_value=0 -0.0224187 0.0439065 -0.00525114 0.0513271 -0.0550916 0.051128 0.0511086 0.051155 0.0510798 0.0510833 0.0510835
internal_weight=0 12.3423 6.44274 8.09101 5.72154 4.25133 5.06741 4.42695 1.69468 2.73227 1.94243 1.22043
internal_count=316 96 220 46 210 50 198 175 65 110 78 49
is_linear=0
shrinkage=0.0497778


Tree=27
num_leaves=13
num_cat=0
split_feature=0 0 1 2 1 1 0 2 5 5 1 4
split_gain=9.36308 2.86542 1.06893 1.01773 0.000817182 0.000443736 8.18469e-06 3.64538e-06 7.65918e-06 5.03444e-08 8.51763e-11 3.26839e-11
threshold=12.500000000000002 14.500000000000002 13.500000000000002 3.5000000000000004 12.500000000000002 15.500000000000002 11.500000000000002 5.5000000000000009 1.0000000180025095e-35 1.0000000180025095e-35 9.5000000000000018 1.5000000000000002
decision_type=2 2 2 2 2 2 2 2 2 2 2 2
left_child=2 3 4 -2 6 -3 7 9 -9 -1 11 -11
right_child=1 5 -4 -5 -6 -7 -8 8 -10 10 -12 -13
leaf_value=0.017340095499005066 0.0034041698606532373 -0.019117004580777152 -0.0036037015033452057 -0.0083848635696888892 0.017969962089817434 -0.018790205543173226 0.017414868265953891 0.017412770068935202 0.01734481743344856 0.017344791285242443 0.017344669757621865 0.017344955773208087
leaf_weight=0.90486304461956324 4.0691368132829648 2.0494475662708274 0.76548114418983448 4.2358563989400864 0.70318272337317456 2.7680689245462418 0.73297274857759465 0.79945775866508451 1.1411270014941692 0.59906329773366473 0.82709164358675469 0.79899249225854874
leaf_count=32 22 20 10 24 12 30 23 25 40 21 29 28
internal_value=0 -0.00860025 0.0152141 -0.00260868 0.017428 -0.0189292 0.0173623 0.0173547 0.0173728 0.0173434 0.0173448 0.0173449
internal_weight=0 13.1225 7.27223 8.30499 6.50675 4.81752 5.80357 5.0706 1.94058 3.13001 2.22515 1.39806
internal_count=316 96 220 46 210 50 198 175 65 110 78 49
is_linear=0
shrinkage=0.016835


Tree=28
num_leaves=12
num_cat=0
split_feature=0 4 0 1 1 0 2 5 5 1 4
split_gain=6.93845 2.81396 3.93327 1.06616 0.000537769 4.38193e-06 1.94998e-06 4.09361e-06 2.68896e-08 4.48055e-11 1.71614e-11
threshold=12.500000000000002 1.5000000000000002 13.500000000000002 13.500000000000002 12.500000000000002 11.500000000000002 5.5000000000000009 1.0000000180025095e-35 1.0000000180025095e-35 9.5000000000000018 1.5000000000000002
decision_type=2 2 2 2 2 2 2 2 2 2 2
left_child=3 -2 -3 4 5 6 8 -8 -1 10 -10
right_child=1 2 -4 -5 -6 -7 7 -9 9 -11 -12
leaf_value=0.043789088897643748 -0.044172760068327543 0.026477449705473024 -0.036074978375761624 -0.010450946005536102 0.045186657414677638 0.043942508309794209 0.043938102676777786 0.043798771577994722 0.043798717587951536 0.04379847013302901 0.043799051983111258
leaf_weight=0.74125913530588428 4.7582025751471502 4.0297220796346664 3.3763947337865829 0.74937123060226429 0.60617240145802487 0.60113653354346741 0.65564344078302361 0.93487342074513435 0.49078510142862775 0.67759700119495403 0.65457960963249207
leaf_count=32 39 21 36 10 12 23 25 40 21 29 28
internal_value=0 -0.0185205 -0.00203975 0.0373123 0.0439875 0.0438346 0.043819 0.0438562 0.043796 0.0437987 0.0437989
internal_weight=0 12.1643 7.40612 6.11142 5.36205 4.75587 4.15474 1.59052 2.56422 1.82296 1.14536
internal_count=316 96 57 220 210 198 175 65 110 78 49
is_linear=0
shrinkage=0.04275


Tree=29
num_leaves=13
num_cat=0
split_feature=0 0 1 6 1 1 0 2 5 5 1 4
split_gain=6.07725 2.53817 1.01856 0.987053 0.000393932 0.000169634 3.22323e-06 1.43359e-06 3.00894e-06 1.97707e-08 3.32385e-11 1.29372e-11
threshold=12.500000000000002 14.500000000000002 13.500000000000002 1.0000000180025095e-35 12.500000000000002 15.500000000000002 11.500000000000002 5.5000000000000009 1.0000000180025095e-35 1.0000000180025095e-35 9.5000000000000018 1.5000000000000002
decision_type=2 2 2 2 2 2 2 2 2 2 2 2
left_child=2 3 4 -2 6 -3 7 9 -9 -1 11 -11
right_child=1 5 -4 -5 -6 -7 -8 8 -10 10 -12 -13
leaf_value=0.038713619662631753 -0.015742927287946785 -0.041606858424114206 -0.0081575368300662934 0.011015116201716272 0.039825358314103505 -0.041089024325249995 0.038836042692712736 0.03883249207849785 0.038721344429780022 0.038721301213562001 0.038721104117840049 0.038721571384514132
leaf_weight=0.67219302058220232 4.2804544791579229 1.5827797986567023 0.76479137688875187 3.6785672158002853 0.55131495371460904 2.1289437785744667 0.54530223831534375 0.59474148042499997 0.84778484702110291 0.44506573677062966 0.61447473987936985 0.59360227733850479
leaf_count=32 25 20 10 21 12 30 23 25 40 21 29 28
internal_value=0 -0.0154401 0.0324824 -0.00337567 0.0388718 -0.0413098 0.03875 0.0387375 0.0387672 0.0387191 0.0387213 0.0387215
internal_weight=0 11.6707 5.62927 7.95902 4.86448 3.71172 4.31316 3.76786 1.44253 2.32534 1.65314 1.03867
internal_count=316 96 220 46 210 50 198 175 65 110 78 49
is_linear=0
shrinkage=0.0378825


Tree=30
num_leaves=13
num_cat=0
split_feature=0 0 1 2 1 1 0 2 5 5 1 4
split_gain=6.31005 2.45415 0.922854 0.898465 0.000319785 0.000110253 3.25475e-06 1.44749e-06 3.03853e-06 1.99768e-08 3.4051e-11 1.2826e-11
threshold=12.500000000000002 14.500000000000002 13.500000000000002 3.5000000000000004 12.500000000000002 15.500000000000002 11.500000000000002 5.5000000000000009 1.0000000180025095e-35 1.0000000180025095e-35 9.5000000000000018 1.5000000000000002
decision_type=2 2 2 2 2 2 2 2 2 2 2 2
left_child=2 3 4 -2 6 -3 7 9 -9 -1 11 -11
right_child=1 5 -4 -5 -6 -7 -8 8 -10 10 -12 -13
leaf_value=0.027254714427490796 0.0060964923623403654 -0.029263890291262473 -0.0032532447915329795 -0.011678594343877885 0.027974592971725984 -0.02897081576701005 0.027341112228736926 0.027338609215689598 0.0272601685503715 0.027260138281490071 0.027259996410140052 0.027260327184202713
leaf_weight=0.67547728121280992 3.9590291231870633 1.5776170790195458 0.81828723102807988 4.1333591267466545 0.52947029098868359 2.1660318002104759 0.54778099805116642 0.59745075181126572 0.85190869122743607 0.44723072089254834 0.61746415682137024 0.59648936986923218
leaf_count=32 22 20 10 24 12 30 23 25 40 21 29 28
internal_value=0 -0.0112415 0.0229474 -0.00298251 0.0273559 -0.0290943 0.0272804 0.0272716 0.0272925 0.0272586 0.0272602 0.0272602
internal_weight=0 11.836 5.68156 8.09239 4.86327 3.74365 4.3338 3.78602 1.44936 2.33666 1.66118 1.04372
internal_count=316 96 220 46 210 50 198 175 65 110 78 49
is_linear=0
shrinkage=0.0266667


Tree=31
num_leaves=13
num_cat=0
split_feature=0 0 1 9 1 1 0 2 5 5 1 4
split_gain=5.4008 2.34671 0.932773 0.859632 0.000260581 0.000100049 2.38412e-06 1.06001e-06 2.22416e-06 1.46246e-08 2.42444e-11 9.34386e-12
threshold=12.500000000000002 14.500000000000002 13.500000000000002 4.5000000000000009 12.500000000000002 15.500000000000002 11.500000000000002 5.5000000000000009 1.0000000180025095e-35 1.0000000180025095e-35 9.5000000000000018 1.5000000000000002
decision_type=2 2 2 2 2 2 2 2 2 2 2 2
left_child=2 3 4 -2 6 -3 7 9 -9 -1 11 -11
right_child=1 5 -4 -5 -6 -7 -8 8 -10 10 -12 -13
leaf_value=0.032376468530714499 -0.011839471184223764 -0.034530758090533249 -0.0047235034198466024 0.0091588841062106643 0.033179663390189434 -0.034182335568117214 0.032469014589493431 0.03246630949392932 0.032382312049174862 0.032382276669109124 0.032382128130608048 0.032382478497917838
leaf_weight=0.61092201620340714 4.5970655605196935 1.4424138329923146 0.80225985497236241 3.4314176961779594 0.49109534546732891 1.9580968692898748 0.49565783701837052 0.54059454612433888 0.7705143503844738 0.40450067818164825 0.55846894346177578 0.53949916362762451
leaf_count=32 27 20 10 19 12 30 23 25 40 21 29 28
internal_value=0 -0.0122267 0.0267638 -0.00286466 0.0324903 -0.0343301 0.0324039 0.0323945 0.0324169 0.0323806 0.0323823 0.0323824
internal_weight=0 11.429 5.21351 8.02848 4.41125 3.40051 3.92016 3.4245 1.31111 2.11339 1.50247 0.944
internal_count=316 96 220 46 210 50 198 175 65 110 78 49
is_linear=0
shrinkage=0.031746


Tree=32
num_leaves=13
num_cat=0
split_feature=1 0 8 9 1 1 0 2 5 5 1 4
split_gain=4.76304 4.02469 0.853166 0.631521 0.00315983 0.000191312 1.75603e-06 7.80341e-07 1.63741e-06 1.07693e-08 1.82179e-11 6.87994e-12
threshold=14.500000000000002 12.500000000000002 3.5000000000000004 4.5000000000000009 13.500000000000002 12.500000000000002 11.500000000000002 5.5000000000000009 1.0000000180025095e-35 1.0000000180025095e-35 9.5000000000000018 1.5000000000000002
decision_type=2 2 2 2 2 2 2 2 2 2 2 2
left_child=1 4 -2 -3 5 6 7 9 -9 -1 11 -11
right_child=2 3 -4 -5 -6 -7 -8 8 -10 10 -12 -13
leaf_value=0.060321972525389518 -0.036826370278491519 -0.024088489210530768 -0.097101001103534992 0.0093417025972909393 0.065211534000288729 0.061670029492758592 0.060477673941585763 0.060473089062561852 0.060331796480144043 0.06033174614185044 0.060331491710960354 0.060332085689703545
leaf_weight=0.55377748608589095 1.9329423941671857 4.2860346287488937 1.4382903128862381 3.6951817721128464 0.57498677819967259 0.44617582857608784 0.44941284134984005 0.49015344306826569 0.69845348224043846 0.36667046137154102 0.50623893365263939 0.48904375731945038
leaf_count=32 27 27 22 23 7 12 23 25 40 21 29 28
internal_value=0 0.0167902 -0.0625417 -0.00861082 0.0611039 0.0605134 0.0603682 0.0603523 0.0603901 0.0603289 0.0603318 0.0603319
internal_weight=0 12.5561 3.37123 7.98122 4.57491 3.99993 3.55375 3.10434 1.18861 1.91573 1.36195 0.855714
internal_count=316 267 49 50 217 210 198 175 65 110 78 49
is_linear=0
shrinkage=0.0592593


Tree=33
num_leaves=13
num_cat=0
split_feature=0 4 2 5 2 8 3 0 7 1 0 2
split_gain=4.16987 3.26828 4.83076 1.53381 3.24654 1.4284 1.12577 0.0952097 0.0012596 0.000498725 9.52507e-11 3.88578e-15
threshold=13.500000000000002 1.5000000000000002 1.0000000180025095e-35 1.0000000180025095e-35 5.5000000000000009 2.5000000000000004 1.5000000000000002 12.500000000000002 3.5000000000000004 11.500000000000002 9.5000000000000018 5.5000000000000009
decision_type=2 2 2 2 2 2 2 2 2 2 2 2
left_child=1 2 -1 4 -3 -4 -2 9 -8 10 11 -5
right_child=6 3 5 7 -6 -7 8 -9 -10 -11 -12 -13
leaf_value=-0.11480921862045944 -0.0065041811020237657 0.068674553373101327 0.067805149717874186 0.056611017669916289 -0.04761850564034549 -0.020400749433242445 -0.059966496462759908 0.075024074181343825 -0.062168984598446581 0.05882827778498697 0.056610007522199739 0.056611025464869437
leaf_weight=1.1814395319670423 1.8479898460209376 1.5682660834863784 1.1465296950191262 0.50654894113540672 1.4183688536286352 1.1319592855870722 1.7168377786874773 2.0554293096065521 1.5178011432290075 0.4186986032873391 0.44275346584618092 0.31659379601478577
leaf_count=29 18 30 31 32 32 24 29 11 20 12 28 20
internal_value=0 0.0205828 -0.0234087 0.0432102 0.0134464 0.0239842 -0.0411859 0.0669785 -0.061 0.0571618 0.0566107 0.056611
internal_weight=0 10.1866 3.45993 6.72666 2.98663 2.27849 5.08263 3.74002 3.23464 1.68459 1.2659 0.823143
internal_count=316 249 84 165 62 55 67 103 49 92 80 52
is_linear=0
shrinkage=0.0557002


Tree=34
num_leaves=13
num_cat=0
split_feature=0 0 2 1 1 1 5 4 2 8 0 0
split_gain=6.40271 2.27154 1.01429 0.939816 0.000345549 0.000163536 1.44196e-05 1.07062e-05 9.00283e-06 9.21476e-07 5.30846e-10 2.22045e-16
threshold=12.500000000000002 14.500000000000002 3.5000000000000004 13.500000000000002 15.500000000000002 12.500000000000002 1.0000000180025095e-35 1.5000000000000002 5.5000000000000009 2.5000000000000004 9.5000000000000018 7.5000000000000009
decision_type=2 2 2 2 2 2 2 2 2 2 2 2
left_child=3 2 -2 5 -3 6 8 9 -1 -8 11 -9
right_child=1 4 -4 -5 -6 -7 7 10 -10 -11 -12 -13
leaf_value=0.010747692344370499 0.0024218088016204333 -0.011566972909402787 -0.0051353147099601325 -0.0015014893699146139 -0.011361370795673648 0.010955390302036093 0.010751152500207592 0.010717793209020802 0.01079625817618925 0.01077134332011883 0.010717411432540023 0.010717793253319265
leaf_weight=0.81050291843712574 3.8340812399983388 1.5956290476024153 4.0018104240298271 0.80221922695636738 2.0708728022873402 0.46777428314089764 0.50982447154819999 0.45787820033729054 0.87526377104222775 0.48749083466827869 0.65584886819124211 0.57732556946575642
leaf_count=37 22 20 24 10 30 12 23 23 33 20 33 29
internal_value=0 -0.00462944 -0.00143763 0.00902477 -0.0114508 0.0107688 0.0107488 0.0107337 0.0107729 0.010761 0.0107176 0.0107178
internal_weight=0 11.5024 7.83589 5.64413 3.6665 4.84191 4.37413 2.68837 1.68577 0.997315 1.69105 1.0352
internal_count=316 96 46 220 50 210 198 128 70 43 85 52
is_linear=0
shrinkage=0.0105


Tree=35
num_leaves=12
num_cat=0
split_feature=0 0 6 1 6 1 5 4 2 0 1
split_gain=9.77832 2.35317 1.12312 0.728056 0.000340363 0.00012058 2.5286e-05 1.38772e-05 1.36079e-05 3.52018e-10 3.33067e-15
threshold=12.500000000000002 14.500000000000002 1.0000000180025095e-35 13.500000000000002 1.0000000180025095e-35 11.500000000000002 1.0000000180025095e-35 1.5000000000000002 5.5000000000000009 9.5000000000000018 8.5000000000000018
decision_type=2 2 2 2 2 2 2 2 2 2 2
left_child=3 2 -2 5 -3 6 8 -8 -1 10 -9
right_child=1 4 -4 -5 -6 -7 7 9 -10 -11 -12
leaf_value=0.017164625965316774 -0.0097364006822257109 -0.018615737809133278 0.0026454169233769581 0.0016335275505437296 -0.018896924530552011 0.017345364708791468 0.017175542802637125 0.017101315532573463 0.017258069548874402 0.017100850333151348 0.017101317304700603
leaf_weight=0.95940431021154171 4.4375261291861516 2.5716576427221289 3.7585661113262177 0.97133483737707127 2.2350245416164398 1.1631620377302168 1.0744063407182696 0.79264403693377949 0.78884138911962509 0.6928576324135064 0.49540438689291477
leaf_count=35 25 28 21 10 22 33 38 32 24 28 20
internal_value=0 -0.00948805 -0.00405834 0.0150147 -0.0187465 0.0171931 0.0171562 0.0171273 0.0172068 0.0171012 0.0171013
internal_weight=0 13.0028 8.19609 6.93805 4.80668 5.96672 4.80356 3.05531 1.74825 1.98091 1.28805
internal_count=316 96 46 220 50 210 177 118 59 80 52
is_linear=0
shrinkage=0.0166667


Tree=36
num_leaves=12
num_cat=0
split_feature=0 4 0 1 1 5 4 2 8 0 1
split_gain=4.72092 2.05485 2.68588 0.908972 0.000112246 7.44498e-06 5.54361e-06 4.62525e-06 4.75505e-07 2.99969e-10 1.11022e-16
threshold=12.500000000000002 1.5000000000000002 13.500000000000002 13.500000000000002 12.500000000000002 1.0000000180025095e-35 1.5000000000000002 5.5000000000000009 2.5000000000000004 9.5000000000000018 8.5000000000000018
decision_type=2 2 2 2 2 2 2 2 2 2 2
left_child=3 -2 -3 4 5 7 8 -1 -7 10 -8
right_child=1 2 -4 -5 -6 6 9 -9 -10 -11 -12
leaf_value=0.069866792827426125 -0.062324803741237694 0.036455739027992984 -0.05246621850872954 -0.010221764332879864 0.071084143019853913 0.069884737142435191 0.069710279410732809 0.070119623359838457 0.069990091079462705 0.069708194102291177 0.069710281789744796
leaf_weight=0.65487243887037194 4.3172308392822725 3.7556054294109344 2.7790701873600483 0.79910374432802189 0.40024409629404534 0.41194002702832255 0.51423814333975293 0.70809493772685528 0.39419981092214584 0.5293680801987648 0.32140020094811916
leaf_count=37 39 21 36 10 12 23 32 33 20 33 20
internal_value=0 -0.0256143 -0.00136104 0.0564534 0.0699958 0.0698725 0.0697937 0.0699981 0.0699363 0.0697095 0.0697103
internal_weight=0 10.8519 6.53468 4.73346 3.93436 3.53411 2.17115 1.36297 0.80614 1.36501 0.835638
internal_count=316 96 57 220 210 198 128 70 43 85 52
is_linear=0
shrinkage=0.0685714


Tree=37
num_leaves=13
num_cat=0
split_feature=0 0 1 2 1 1 5 4 2 8 0 1
split_gain=4.11968 1.98098 0.873805 0.863759 0.000116194 8.25455e-05 5.4851e-06 4.08762e-06 3.40188e-06 3.49313e-07 2.20049e-10 5.55112e-16
threshold=12.500000000000002 14.500000000000002 13.500000000000002 3.5000000000000004 15.500000000000002 12.500000000000002 1.0000000180025095e-35 1.5000000000000002 5.5000000000000009 2.5000000000000004 9.5000000000000018 8.5000000000000018
decision_type=2 2 2 2 2 2 2 2 2 2 2 2
left_child=2 3 5 -2 -3 6 8 9 -1 -8 11 -9
right_child=1 4 -4 -5 -6 -7 7 10 -10 -11 -12 -13
leaf_value=0.049077303203732277 0.012479199656976163 -0.051833734538474945 -0.0063913421826207947 -0.019965988801903822 -0.051208026336598628 0.04984833405606999 0.049088703088905415 0.048977910464966218 0.049237561718394995 0.049155444382687714 0.048976590559444026 0.048977912986720572
leaf_weight=0.59356399346143141 3.7320516556501371 1.2185442671179774 0.80886297672986973 3.9144968688488007 1.5963466316461561 0.36335442587733258 0.37338335253298294 0.46600042004138209 0.64201836287975311 0.35735367797315121 0.47970978543162346 0.29125149827450514
leaf_count=37 22 20 10 24 30 12 23 32 33 20 33 20
internal_value=0 -0.0168706 0.0388899 -0.00413046 -0.0514789 0.0491591 0.0490809 0.0490309 0.0491606 0.0491213 0.0489774 0.0489779
internal_weight=0 10.4614 4.3755 7.64655 2.81489 3.56664 3.20328 1.9677 1.23558 0.730737 1.23696 0.757252
internal_count=316 96 220 46 50 210 198 128 70 43 85 52
is_linear=0
shrinkage=0.048254


Tree=38
num_leaves=12
num_cat=0
split_feature=0 3 8 7 2 1 5 4 2 0 1
split_gain=3.64538 3.00235 2.27903 0.784109 0.206052 9.97054e-05 3.78436e-06 1.81962e-06 1.34708e-06 1.87041e-11 1.11022e-16
threshold=11.500000000000002 2.5000000000000004 3.5000000000000004 3.5000000000000004 5.5000000000000009 11.500000000000002 1.0000000180025095e-35 1.5000000000000002 5.5000000000000009 9.5000000000000018 8.5000000000000018
decision_type=2 2 2 2 2 2 2 2 2 2 2
left_child=5 2 3 -2 -3 6 8 -8 -1 10 -9
right_child=1 4 -4 -5 -6 -7 7 9 -10 -11 -12
leaf_value=0.052809003140169071 0.0037608596574170592 -0.065782698965198699 -0.033943843460356407 0.043982029896037479 -0.04035572140631135 0.053684425604634121 0.052809350224303712 0.052691550184450896 0.052940552055804904 0.052691074198810875 0.05269155144293864
leaf_weight=0.46201899554580594 2.5684952083975059 1.8358916481956833 2.7816805802285671 2.6733995722606778 1.6226184945553539 0.3822245318442582 0.54209807794541132 0.42222636938095071 0.38627049420028925 0.32964703906327486 0.26389259845018387
leaf_count=31 32 25 33 27 16 17 36 32 22 25 20
internal_value=0 -0.0133627 0.00409049 0.0242739 -0.0538532 0.0529045 0.0527806 0.0527324 0.0528689 0.0526914 0.0526916
internal_weight=0 11.4821 8.02358 5.24189 3.45851 2.78838 2.40615 1.55786 0.848289 1.01577 0.686119
internal_count=316 133 92 59 41 183 166 113 53 77 52
is_linear=0
shrinkage=0.0519869


Tree=39
num_leaves=13
num_cat=0
split_feature=0 0 1 6 1 1 0 5 4 2 0 2
split_gain=3.47631 1.88837 0.809928 0.671679 9.64272e-05 6.74512e-05 4.75561e-06 3.37188e-06 1.55646e-06 1.22861e-06 9.20073e-11 7.77156e-16
threshold=12.500000000000002 14.500000000000002 13.500000000000002 1.0000000180025095e-35 15.500000000000002 12.500000000000002 11.500000000000002 1.0000000180025095e-35 1.5000000000000002 5.5000000000000009 9.5000000000000018 5.5000000000000009
decision_type=2 2 2 2 2 2 2 2 2 2 2 2
left_child=2 3 5 -2 -3 6 7 9 -9 -1 11 -10
right_child=1 4 -4 -5 -6 -7 -8 8 10 -11 -12 -13
leaf_value=0.035517397883731636 -0.012112822582628226 -0.037398973414649005 -0.0034118836775151682 0.0086462353285460189 -0.036968487808124569 0.036053226878465627 0.035634214200696207 0.035519822124140212 0.03544568225040208 0.035601203430599589 0.03544498450632904 0.035445684571026877
leaf_weight=0.446663107723 4.1782691329717618 1.1266496777534487 0.82668485119938839 3.5160722509026527 1.4678606539964674 0.32534767314791668 0.38796708825975645 0.52427853923290979 0.3972988501191137 0.41190621070563793 0.35949971340596676 0.24831231683492661
leaf_count=32 25 20 10 21 30 12 23 37 32 25 29 20
internal_value=0 -0.0113336 0.0273709 -0.00262659 -0.0371554 0.0355764 0.0355206 0.0355021 0.0354709 0.0355576 0.0354454 0.0354457
internal_weight=0 10.2889 3.92796 7.69434 2.59451 3.10127 2.77593 2.38796 1.52939 0.858569 1.00511 0.645611
internal_count=316 96 220 46 50 210 198 175 118 57 81 52
is_linear=0
shrinkage=0.035


Tree=40
num_leaves=13
num_cat=0
split_feature=0 0 2 1 6 1 0 5 4 2 0 1
split_gain=6.62762 2.26247 0.971538 0.749112 0.000307303 0.000133109 1.5854e-05 1.1294e-05 5.20742e-06 4.15099e-06 3.09659e-10 7.77156e-16
threshold=12.500000000000002 14.500000000000002 3.5000000000000004 13.500000000000002 1.0000000180025095e-35 12.500000000000002 11.500000000000002 1.0000000180025095e-35 1.5000000000000002 5.5000000000000009 9.5000000000000018 8.5000000000000018
decision_type=2 2 2 2 2 2 2 2 2 2 2 2
left_child=3 2 -2 5 -3 6 7 9 -9 -1 11 -10
right_child=1 4 -4 -5 -6 -7 -8 8 10 -11 -12 -13
leaf_value=0.014603000886548059 0.0026639424969109701 -0.015568555368978006 -0.0073562037872338323 0.0004491828243021779 -0.01582260898906666 0.01486844372944658 0.014674677032057701 0.014604573000505992 0.01455910985788666 0.014654686477369483 0.014558680772481741 0.014559110734310547
leaf_weight=0.66162497177720359 3.917132690548895 2.0495169311761856 3.9824684336781502 0.91296181827783573 1.8476345278322699 0.43245586566627015 0.5729653239250182 0.77662331238389049 0.58962258137762524 0.60901187546551228 0.53353535197675228 0.36851547472178936
leaf_count=32 22 28 24 10 22 12 23 37 32 25 29 20
internal_value=0 -0.0067818 -0.00238757 0.0122577 -0.015689 0.01463 0.014605 0.0145937 0.0145746 0.0146278 0.014559 0.0145591
internal_weight=0 11.7968 7.8996 5.45732 3.89715 4.54435 4.1119 3.53893 2.2683 1.27064 1.49167 0.958138
internal_count=316 96 46 220 50 210 198 175 118 57 81 52
is_linear=0
shrinkage=0.0142857


Tree=41
num_leaves=13
num_cat=0
split_feature=1 0 6 9 1 1 0 5 4 2 0 1
split_gain=3.40478 3.35463 0.882287 0.508968 0.00308675 6.09196e-05 4.51939e-06 3.20595e-06 1.48015e-06 1.16816e-06 8.7903e-11 2.22045e-16
threshold=14.500000000000002 12.500000000000002 1.0000000180025095e-35 4.5000000000000009 13.500000000000002 12.500000000000002 11.500000000000002 1.0000000180025095e-35 1.5000000000000002 5.5000000000000009 9.5000000000000018 8.5000000000000018
decision_type=2 2 2 2 2 2 2 2 2 2 2 2
left_child=1 4 -2 -3 5 6 7 9 -9 -1 11 -10
right_child=2 3 -4 -5 -6 -7 -8 8 10 -11 -12 -13
leaf_value=0.061194502465900753 -0.093900952267254686 -0.023149333295225165 -0.027276031587734006 0.008082207612030998 0.066220675466475268 0.062083220299704138 0.061392337145585452 0.06119861821356478 0.061073018455447908 0.061336467469752104 0.061071832989904026 0.061073020629096864
leaf_weight=0.43954399228095975 1.3949737846851358 4.0862630344927311 1.5015046335756779 3.5456608012318611 0.54485777765512455 0.31698345579206932 0.38175744470208872 0.51592941209673882 0.39098629169166088 0.40533923078328371 0.35378813650459051 0.2443674486130476
leaf_count=32 26 27 23 23 7 12 23 37 32 25 29 20
internal_value=0 0.0139863 -0.0593633 -0.0086397 0.062039 0.0612917 0.0611999 0.0611686 0.0611158 0.0612626 0.0610726 0.061073
internal_weight=0 11.2255 2.89648 7.63192 3.59355 3.0487 2.73171 2.34995 1.50507 0.844883 0.989142 0.635354
internal_count=316 267 49 50 217 210 198 175 118 57 81 52
is_linear=0
shrinkage=0.0603175


Tree=42
num_leaves=13
num_cat=0
split_feature=0 0 6 1 1 1 0 5 4 2 0 2
split_gain=5.79817 2.24229 0.994302 0.831268 0.000476695 0.00010559 1.30348e-05 9.28498e-06 4.27643e-06 3.41686e-06 2.5419e-10 2.33147e-15
threshold=12.500000000000002 14.500000000000002 1.0000000180025095e-35 13.500000000000002 15.500000000000002 12.500000000000002 11.500000000000002 1.0000000180025095e-35 1.5000000000000002 5.5000000000000009 9.5000000000000018 5.5000000000000009
decision_type=2 2 2 2 2 2 2 2 2 2 2 2
left_child=3 2 -2 5 -3 6 7 9 -9 -1 11 -10
right_child=1 4 -4 -5 -6 -7 -8 8 10 -11 -12 -13
leaf_value=0.014582721737699311 -0.0066649285496450774 -0.015777021210454874 0.0034353878254773478 -0.00092458758905207994 -0.015445819578191756 0.014827309149149776 0.014649810680589667 0.014584196999522608 0.014541671169197546 0.014631116912611692 0.014541270133319541 0.014541672686061109
leaf_weight=0.6210148595273528 4.3186983913183195 1.5881125964224332 3.6874041706323624 0.84207656234502781 2.0085020177066326 0.40404891408979882 0.53809352591633786 0.72898997738957438 0.5533378869295118 0.57193672098219395 0.50070058740675449 0.34583672881126404
leaf_count=32 25 20 21 10 30 12 23 37 32 25 29 20
internal_value=0 -0.00622223 -0.00201298 0.0120461 -0.0155921 0.0146076 0.0145846 0.014574 0.0145561 0.0146059 0.0145415 0.0145417
internal_weight=0 11.6027 8.0061 5.10604 3.59661 4.26396 3.85991 3.32182 2.12887 1.19295 1.39988 0.899175
internal_count=316 96 46 220 50 210 198 175 118 57 81 52
is_linear=0
shrinkage=0.0142857


Tree=43
num_leaves=14
num_cat=0
split_feature=0 3 8 0 5 1 1 0 1 1 4 2 2
split_gain=3.29394 2.97272 1.43161 1.52825 1.15701 0.970128 2.08905 0.0477338 0.000205035 0.000155645 8.68613e-07 7.40291e-07 7.03874e-09
threshold=14.500000000000002 2.5000000000000004 3.5000000000000004 12.500000000000002 1.0000000180025095e-35 12.500000000000002 11.500000000000002 12.500000000000002 10.500000000000002 15.500000000000002 1.5000000000000002 5.5000000000000009 1.0000000180025095e-35
decision_type=2 2 2 2 2 2 2 2 2 2 2 2 2
left_child=1 2 5 8 -3 6 7 10 -4 -2 -1 12 -12
right_child=9 4 3 -5 -6 -7 -8 -9 -10 -11 11 -13 -14
leaf_value=0.043360900742814568 -0.045711628507701968 0.0053963126286007673 0.043344742367554756 -0.026135353951674746 -0.047214024395009935 0.054844997398986711 -0.022712733972313302 0.058111476787159513 0.04468518588269145 -0.045032646704589757 0.043249339026239265 0.043334895352221452 0.043259306417079188
leaf_weight=0.43552335817366639 1.1129279695451271 1.2718822937458745 0.42205506004393134 1.7763726189732549 1.9129663286730647 2.4430711660534143 1.2971586184576154 0.57326117157936107 0.41224834229797125 1.3846671432256696 0.25095595698803663 0.35079109575599432 0.26749350782483816
leaf_count=32 20 21 32 10 38 23 17 3 18 30 22 27 23
internal_value=0 0.00886529 0.0224381 -0.00371967 -0.0262039 0.0345931 0.0190107 0.0478292 0.0440071 -0.0453352 0.0433116 0.0432869 0.0432545
internal_weight=0 11.4138 8.22893 2.61068 3.18485 5.61825 3.17518 1.87803 0.834303 2.4976 1.30476 0.869241 0.518449
internal_count=316 266 207 60 59 147 124 107 50 50 104 72 45
is_linear=0
shrinkage=0.04275


Tree=44
num_leaves=14
num_cat=0
split_feature=0 3 0 7 1 2 1 3 5 2 4 8 2
split_gain=2.95952 2.02437 1.86312 1.18069 0.58653 0.140732 4.20987e-05 2.62709e-06 1.30621e-06 7.65015e-07 7.42747e-07 2.61446e-11 3.65596e-13
threshold=11.500000000000002 2.5000000000000004 13.500000000000002 3.5000000000000004 12.500000000000002 5.5000000000000009 11.500000000000002 2.5000000000000004 1.0000000180025095e-35 5.5000000000000009 1.5000000000000002 3.5000000000000004 4.5000000000000009
decision_type=2 2 2 2 2 2 2 2 2 2 2 2 2
left_child=6 2 4 -4 -2 -3 7 8 9 -1 -10 12 -12
right_child=1 5 3 -5 -6 -7 -8 -9 10 -11 11 -13 -14
leaf_value=0.063257424644540025 0.0063207236968131943 -0.066560122208636829 -0.07011800381908051 0.00651985603280521 0.051176078939218377 -0.04107660846011673 0.064071336440791243 0.063424117088544202 0.063289909101492708 0.063404594751362092 0.063172915650197864 0.063172033870645045 0.063172806163708725
leaf_weight=0.28790014050901047 2.2732410384342057 1.8126389952376487 1.6539042517542841 1.4951211027801035 2.2817037217319012 1.588229354470968 0.31071597896516312 0.43871614802628744 0.30271031986922026 0.26494111213833094 0.27400154154747725 0.21049886848777533 0.21073627565056086
leaf_count=25 28 25 27 16 21 16 17 31 25 19 26 20 20
internal_value=0 -0.0144957 0.00323427 -0.0337312 0.0287901 -0.0546591 0.0633948 0.0632891 0.0632509 0.063328 0.0632082 0.0631726 0.0631729
internal_weight=0 11.1048 7.70397 3.14903 4.55494 3.40087 2.30022 1.9895 1.55079 0.552841 0.997947 0.695237 0.484738
internal_count=316 133 92 43 49 41 183 166 135 44 91 66 46
is_linear=0
shrinkage=0.0625


Tree=45
num_leaves=14
num_cat=0
split_feature=0 3 4 2 6 0 2 7 5 1 1 5 1
split_gain=8.60406 1.33096 0.689305 1.29107 0.409017 1.3984 0.790938 0.387875 0.0787255 0.00917246 0.000570435 0.000263945 5.9504e-06
threshold=13.500000000000002 1.5000000000000002 1.5000000000000002 1.0000000180025095e-35 1.0000000180025095e-35 12.500000000000002 5.5000000000000009 2.5000000000000004 1.0000000180025095e-35 11.500000000000002 15.500000000000002 1.0000000180025095e-35 8.5000000000000018
decision_type=2 2 2 2 2 2 2 2 2 2 2 2 2
left_child=2 -2 3 -1 5 9 8 -5 -6 11 -3 -4 -13
right_child=1 10 4 7 6 -7 -8 -9 -10 -11 -12 12 -14
leaf_value=0.0036151650094359889 0.001907461288660381 -0.013420685819487736 0.01355602104221278 0.018697461309920158 0.01820745661260614 0.025336026261322808 0.0077221955197811047 0.011590266612097272 0.014633043507336813 0.014549436716801374 -0.013011491599692913 0.013340530378137283 0.013375946564959171
leaf_weight=2.8578980192542129 1.5242348015308373 1.339520486071706 1.6718491911888103 1.8275946192443369 1.8363300524651998 2.1864769458770752 2.9328204952180386 3.4929326139390469 2.0238936990499496 1.516004256904125 0.88334679417312134 1.352927949279547 1.6394993215799329
leaf_count=29 18 25 24 17 15 9 26 38 26 15 24 23 27
internal_value=0 -0.00708908 0.0133164 0.0103916 0.0148943 0.0167443 0.0126156 0.0140316 0.0163334 0.0137048 -0.0132581 0.0134302 0.0133599
internal_weight=0 3.7471 23.3382 8.17843 15.1598 8.36676 6.79304 5.32053 3.86022 6.18028 2.22287 4.66428 2.99243
internal_count=316 67 249 84 165 98 67 55 41 89 49 74 50
is_linear=0
shrinkage=0.0125


Tree=46
num_leaves=14
num_cat=0
split_feature=0 8 4 3 7 1 1 9 0 6 4 2 0
split_gain=3.26795 1.9335 1.81776 1.01327 1.77324 0.771459 1.68566 0.620932 0.0449026 8.17997e-05 1.00328e-06 7.61096e-07 2.13796e-08
threshold=14.500000000000002 3.5000000000000004 1.5000000000000002 2.5000000000000004 3.5000000000000004 12.500000000000002 11.500000000000002 3.5000000000000004 12.500000000000002 1.0000000180025095e-35 1.5000000000000002 5.5000000000000009 8.5000000000000018
decision_type=2 2 2 2 2 2 2 2 2 2 2 2 2
left_child=1 3 -3 5 -5 6 8 -4 10 -2 -1 12 -12
right_child=9 2 7 4 -6 -7 -8 -9 -10 -11 11 -13 -14
leaf_value=0.05073869610707879 -0.052207919587714889 -0.049182904966375174 -0.0063088484747393665 0.050347526539108539 -0.046874363868208355 0.062427501248692827 -0.016610112770626705 0.045961456255381845 0.067462741002539697 -0.052832159052442026 0.050599712503238942 0.050703238201113519 0.050619745370170353
leaf_weight=0.44887129031121531 1.0548132378607997 1.846305852755904 1.2480143876746299 0.87873771507292975 1.0058643082156775 2.3855628445744514 1.3973207278177142 1.0429905289784072 0.56643833220005047 1.0444158613681793 0.28095678519457579 0.36040060222148895 0.25322049763053656
leaf_count=32 28 24 24 30 12 23 17 29 3 22 24 27 21
internal_value=0 0.0152255 -0.0122647 0.0302353 -0.00154249 0.0407555 0.0251229 0.0174874 0.0556558 -0.0525185 0.0506777 0.0506471 0.0506092
internal_weight=0 11.7147 4.13731 7.57737 1.8846 5.69277 3.30721 2.291 1.90989 2.09923 1.34345 0.894578 0.534177
internal_count=316 266 77 189 42 147 124 53 107 50 104 72 45
is_linear=0
shrinkage=0.05


Tree=47
num_leaves=14
num_cat=0
split_feature=0 4 2 6 2 3 8 0 0 8 1 5 1
split_gain=3.38243 1.64718 2.74476 1.50015 2.17296 0.901681 0.828287 0.100019 0.00422814 0.00140038 0.000326938 2.21002e-06 1.33987e-07
threshold=13.500000000000002 1.5000000000000002 1.0000000180025095e-35 1.0000000180025095e-35 5.5000000000000009 1.5000000000000002 2.5000000000000004 12.500000000000002 14.500000000000002 2.5000000000000004 11.500000000000002 1.0000000180025095e-35 8.5000000000000018
decision_type=2 2 2 2 2 2 2 2 2 2 2 2 2
left_child=1 2 -1 7 9 -2 -4 10 -7 -5 11 -3 -13
right_child=5 3 6 4 -6 8 -8 -9 -10 -11 -12 12 -14
leaf_value=-0.037652582142908349 -0.0040828728221706315 0.031346105615452417 0.038096422010238905 0.034043836966196936 -0.018394482894338045 -0.03477449134007362 0.00046404663362206142 0.042807474135805872 -0.032126578649202951 0.036017281334525288 0.032309175945258457 0.03123299614221239 0.031262025257080106
leaf_weight=1.3996176607906803 1.7652648240327842 0.35239511262625456 1.0115965139120819 0.72428575344383739 1.5414860723540185 0.98032348975539241 1.2389240646734831 1.6624044924974442 1.3859647195786235 0.64932200219482183 0.42787021677941084 0.272253661416471 0.34103468526154757
leaf_count=29 18 24 31 27 26 11 24 9 38 14 15 23 27
internal_value=0 0.0126078 -0.00372208 0.0225903 0.00675431 -0.0207728 0.0173796 0.0376963 -0.0332236 0.0349767 0.0315991 0.0312845 0.0312491
internal_weight=0 9.62119 3.65014 5.97105 2.91509 4.13155 2.25052 3.05596 2.36629 1.37361 1.39355 0.965683 0.613288
internal_count=316 249 84 165 67 67 55 98 49 41 89 74 50
is_linear=0
shrinkage=0.0308571


Tree=48
num_leaves=13
num_cat=0
split_feature=0 4 0 6 5 3 0 0 1 2 1 0
split_gain=5.58771 2.30552 2.81829 1.26329 1.9364 0.671434 0.14635 0.00953474 0.000280765 1.52913e-05 1.40166e-06 1.91623e-07
threshold=13.500000000000002 1.5000000000000002 11.500000000000002 1.0000000180025095e-35 1.0000000180025095e-35 1.5000000000000002 12.500000000000002 14.500000000000002 11.500000000000002 1.0000000180025095e-35 9.5000000000000018 7.5000000000000009
decision_type=2 2 2 2 2 2 2 2 2 2 2 2
left_child=1 2 9 6 -5 -2 8 -7 10 -1 11 -3
right_child=5 3 -4 4 -6 7 -8 -9 -10 -11 -12 -13
leaf_value=0.014396269065421193 -0.0051056989333838647 0.014229593165227584 -0.01053854726603639 -0.0046483677747047956 0.016683276289063832 -0.016377725209936168 0.020075681053657632 -0.014783938966843112 0.014647873918861206 0.014301975076567228 0.014267201655069622 0.014244469746923418
leaf_weight=0.62955514527857148 2.0729138739407071 0.31617479957640149 2.6104995999485254 1.8016992760822177 1.5530097363516688 1.2250490188598635 1.7690704464912415 1.8418122865259645 0.48385753668844711 0.72556552477180958 0.57832799479365349 0.36633585300296545
leaf_count=24 18 20 23 26 41 11 9 38 15 37 32 22
internal_value=0 0.00646431 -0.00203514 0.0113716 0.00522678 -0.0112605 0.0172383 -0.0154206 0.0143612 0.0143458 0.0142512 0.0142376
internal_weight=0 10.8341 3.96562 6.86848 3.35471 5.13978 3.51377 3.06686 1.7447 1.35512 1.26084 0.682511
internal_count=316 249 84 165 67 67 98 49 89 61 74 42
is_linear=0
shrinkage=0.014


Tree=49
num_leaves=13
num_cat=0
split_feature=0 0 4 5 3 7 1 4 2 5 3 1
split_gain=5.74918 1.92584 2.69874 1.58641 0.794138 0.00195968 6.55003e-05 2.08251e-05 2.35366e-05 7.93111e-06 3.28001e-07 1.35935e-07
threshold=13.500000000000002 11.500000000000002 1.5000000000000002 1.0000000180025095e-35 1.5000000000000002 3.5000000000000004 11.500000000000002 1.5000000000000002 1.0000000180025095e-35 1.0000000180025095e-35 1.5000000000000002 9.5000000000000018
decision_type=2 2 2 2 2 2 2 2 2 2 2 2
left_child=1 6 -3 -4 -2 -6 7 8 -1 -9 -11 -12
right_child=4 2 3 -5 5 -7 -8 9 -10 10 11 -13
leaf_value=0.015449093280354697 -0.0047428676141652078 -0.0093041628457814635 0.001089685008791494 0.018876953237892437 -0.016116899488657809 -0.016847978609303049 0.015526977034589386 0.015352124649173455 0.015322461816763886 0.015281181893473354 0.015291146751612056 0.015302751726990785
leaf_weight=0.6737282089889074 2.1419496797025195 2.7709811814129353 2.3884426932781935 2.1381403543055058 1.7161032408475878 1.5887004286050794 0.48108526691794384 0.71402857080101978 0.64778044447302818 0.50516331195831299 0.51986545510590076 0.4032745249569416
leaf_count=24 18 23 24 19 29 20 17 33 32 28 28 21
internal_value=0 0.00691914 0.00235456 0.00949154 -0.0118573 -0.0164683 0.015363 0.0153402 0.015387 0.0153113 0.0152909 0.0152962
internal_weight=0 11.2425 7.29756 4.52658 5.44675 3.3048 3.94493 3.46384 1.32151 2.14233 1.4283 0.92314
internal_count=316 249 66 43 67 49 183 166 56 110 77 49
is_linear=0
shrinkage=0.015


Tree=50
num_leaves=14
num_cat=0
split_feature=0 4 2 6 2 3 8 0 0 8 1 5 1
split_gain=3.4724 1.64226 2.44143 1.36265 2.03757 0.85574 0.842973 0.0830536 0.00391734 0.00125215 0.000269347 1.80979e-06 1.20483e-07
threshold=13.500000000000002 1.5000000000000002 1.0000000180025095e-35 1.0000000180025095e-35 5.5000000000000009 1.5000000000000002 2.5000000000000004 12.500000000000002 14.500000000000002 2.5000000000000004 11.500000000000002 1.0000000180025095e-35 8.5000000000000018
decision_type=2 2 2 2 2 2 2 2 2 2 2 2 2
left_child=1 2 -1 7 9 -2 -4 10 -7 -5 11 -3 -13
right_child=5 3 6 4 -6 8 -8 -9 -10 -11 -12 12 -14
leaf_value=-0.09499072115221413 -0.014147846787401396 0.085787453033999303 0.10255612383240095 0.093312154299758976 -0.044233818084637055 -0.09497262402099424 -0.0011502849210697659 0.11449263982052672 -0.088024856689797912 0.098396088997916437 0.088188592453260717 0.085508371989172854 0.085582563330090677
leaf_weight=1.4649601709097608 1.8267132490873343 0.3566206069663167 1.0056169796735051 0.73852862603962444 1.5953079983592031 0.97244569659233127 1.2582225957885382 1.6056741178035736 1.4291443880647419 0.64907916914671659 0.41972797643393278 0.28141709696501493 0.35047116782516241
leaf_count=29 18 24 31 27 26 11 24 9 38 14 15 23 27
internal_value=0 0.0339562 -0.0100495 0.0613188 0.0208568 -0.0577064 0.044917 0.101365 -0.0908381 0.0956903 0.0863964 0.0856354 0.0855495
internal_weight=0 9.72563 3.7288 5.99683 2.98292 4.2283 2.26384 3.01391 2.40159 1.38761 1.40824 0.988509 0.631888
internal_count=316 249 84 165 67 67 55 98 49 41 89 74 50
is_linear=0
shrinkage=0.0844444


Tree=51
num_leaves=12
num_cat=0
split_feature=0 0 1 6 6 0 4 2 5 1 0
split_gain=3.09123 1.64642 0.730377 0.495736 8.09198e-05 6.16573e-05 2.17641e-05 1.80029e-05 4.37123e-06 5.61755e-07 8.05647e-08
threshold=12.500000000000002 14.500000000000002 13.500000000000002 1.0000000180025095e-35 1.0000000180025095e-35 11.500000000000002 1.5000000000000002 1.0000000180025095e-35 1.0000000180025095e-35 9.5000000000000018 8.5000000000000018
decision_type=2 2 2 2 2 2 2 2 2 2 2
left_child=2 3 5 -2 -3 6 7 -1 -8 10 -10
right_child=1 4 -4 -5 -6 -7 8 -9 9 -11 -12
leaf_value=0.065318097518138649 -0.017258958392830991 -0.066535849296721378 -0.0028506997358480075 0.015890941878458718 -0.067347534511049384 0.065549428362313145 0.064826452117730388 0.06479199427181398 0.064579551606777669 0.064656896516171888 0.064530074870840073
leaf_weight=0.53512514941394485 3.9052650257945043 0.99762435071170297 0.80955267697572697 3.4662760868668556 1.0022919028997421 0.60673198010772456 0.54950615856796481 0.52407363243401051 0.33924716617912054 0.43083002418279648 0.22140676900744438
leaf_count=24 25 28 10 21 22 28 38 37 29 34 20
internal_value=0 -0.0156004 0.0513004 -0.00167108 -0.0669426 0.0649703 0.0648351 0.0650578 0.0646821 0.0646021 0.06456
internal_weight=0 9.37146 4.01647 7.37154 1.99992 3.20692 2.60019 1.0592 1.54099 0.991484 0.560654
internal_count=316 96 220 46 50 210 182 61 121 83 49
is_linear=0
shrinkage=0.0638021


Tree=52
num_leaves=13
num_cat=0
split_feature=0 0 4 2 3 0 1 4 2 2 5 3
split_gain=4.56524 1.56398 2.19417 1.6771 0.721022 0.00663818 4.08433e-05 1.66126e-05 1.73785e-05 4.08893e-06 5.85913e-06 1.76376e-07
threshold=13.500000000000002 11.500000000000002 1.5000000000000002 5.5000000000000009 1.5000000000000002 14.500000000000002 11.500000000000002 1.5000000000000002 1.0000000180025095e-35 5.5000000000000009 1.0000000180025095e-35 1.5000000000000002
decision_type=2 2 2 2 2 2 2 2 2 2 2 2
left_child=1 6 -3 -4 -2 -6 7 8 -1 11 -11 -9
right_child=4 2 3 -5 5 -7 -8 9 -10 10 -12 -13
leaf_value=0.018214304580243926 -0.0054772043865193428 -0.0095357101258826699 0.021728820732042974 -0.0003674928834299836 -0.020435093868955621 -0.018668301693899072 0.018289383234228865 0.018018129683359266 0.018069729960696862 0.01813931035307367 0.018040334288056629 0.018034987950255502
leaf_weight=0.55834046564996132 2.0392000339925298 2.748555826023221 2.1872827690094709 2.1554018296301365 1.1229525133967402 1.6740120090544222 0.37528629228472699 0.30266927834600188 0.49639576114714146 0.34846258535981178 0.41314602456986904 0.55727771855890751
leaf_count=24 18 23 25 18 11 38 17 23 32 18 29 40
internal_value=0 0.00747396 0.00289449 0.0107618 -0.0135164 -0.0193777 0.0181157 0.0180913 0.0181463 0.0180556 0.0180856 0.0180291
internal_weight=0 10.1428 7.09124 4.34268 4.83616 2.79696 3.05158 2.67629 1.05474 1.62156 0.761609 0.859947
internal_count=316 249 66 43 67 49 183 166 56 110 47 63
is_linear=0
shrinkage=0.0177778


Tree=53
num_leaves=12
num_cat=0
split_feature=0 1 4 0 1 0 4 2 5 1 0
split_gain=2.91198 2.02448 1.2693 1.65504 0.00279461 5.75775e-05 1.49635e-05 1.2835e-05 3.44643e-06 4.30786e-07 6.15955e-08
threshold=12.500000000000002 14.500000000000002 1.5000000000000002 13.500000000000002 13.500000000000002 11.500000000000002 1.5000000000000002 1.0000000180025095e-35 1.0000000180025095e-35 9.5000000000000018 8.5000000000000018
decision_type=2 2 2 2 2 2 2 2 2 2 2
left_child=1 4 -2 -4 5 6 7 -1 -8 10 -10
right_child=2 -3 3 -5 -6 -7 8 -9 9 -11 -12
leaf_value=0.054314607326754451 -0.036625542231781841 -0.077719935622014055 0.025631823685949805 -0.034493248268247373 0.058473997141114585 0.054552668474698043 0.05396319344502621 0.053929132840757052 0.05377478131754021 0.053833080143859416 0.053737607996420113
leaf_weight=0.48917119018733757 3.774054888635872 0.36040037870407093 3.4912397712469101 2.0565876737236977 0.47261159867048252 0.57643925398588169 0.51468703430145957 0.48755914345383644 0.31874347012490034 0.40351126901805401 0.20838669501245022
leaf_count=24 39 3 21 36 7 28 38 37 29 34 20
internal_value=0 0.0422208 -0.0128384 0.00334337 0.054674 0.0540751 0.0539614 0.0541222 0.0538528 0.0537917 0.0537601
internal_weight=0 3.83151 9.32188 5.54783 3.47111 2.9985 2.42206 0.97673 1.44533 0.930641 0.52713
internal_count=316 220 96 57 217 210 182 61 121 83 49
is_linear=0
shrinkage=0.0531684


Tree=54
num_leaves=12
num_cat=0
split_feature=0 1 4 2 1 0 4 2 5 1 0
split_gain=2.56201 1.73491 1.05045 1.48927 0.00206196 4.26274e-05 1.10336e-05 9.45366e-06 2.54648e-06 3.18275e-07 4.55066e-08
threshold=12.500000000000002 14.500000000000002 1.5000000000000002 4.5000000000000009 13.500000000000002 11.500000000000002 1.5000000000000002 1.0000000180025095e-35 1.0000000180025095e-35 9.5000000000000018 8.5000000000000018
decision_type=2 2 2 2 2 2 2 2 2 2 2
left_child=1 4 -2 -4 5 6 7 -1 -8 10 -10
right_child=2 -3 3 -5 -6 -7 8 -9 9 -11 -12
leaf_value=0.077673573364321874 -0.048381884886116944 -0.092254790855520935 0.041769287227776675 -0.03877750568144156 0.083035112693848279 0.077982865082519032 0.077219692124629716 0.077175598534926337 0.076975858741752584 0.077051308872361807 0.076927748172880547
leaf_weight=0.44348257035017269 3.6892673820257169 0.38980484008789051 2.875697810202837 2.4831791296601295 0.43134221807122219 0.52279795706272114 0.46633613761514403 0.4417314613237977 0.28870816808193922 0.36552429758012295 0.18873846810311079
leaf_count=24 39 3 33 24 7 28 38 37 29 34 20
internal_value=0 0.0593702 -0.017094 0.00444577 0.0781414 0.0773646 0.0772173 0.0774251 0.0770768 0.0769978 0.0769568
internal_weight=0 3.53847 9.04814 5.35888 3.14866 2.71732 2.19452 0.885214 1.30931 0.842971 0.477447
internal_count=316 220 96 57 217 210 182 61 121 83 49
is_linear=0
shrinkage=0.0761905


Tree=55
num_leaves=14
num_cat=0
split_feature=0 4 6 1 5 2 3 0 0 1 9 6 1
split_gain=6.05359 1.9325 2.62397 2.79362 1.49684 3.04151 0.676335 0.332724 0.0799439 0.0019588 0.0018314 7.25345e-07 4.27943e-08
threshold=13.500000000000002 1.5000000000000002 1.0000000180025095e-35 11.500000000000002 1.0000000180025095e-35 5.5000000000000009 1.5000000000000002 10.500000000000002 12.500000000000002 11.500000000000002 2.5000000000000004 1.0000000180025095e-35 8.5000000000000018
decision_type=2 2 2 2 2 2 2 2 2 2 2 2 2
left_child=1 2 3 7 5 -3 -2 -1 9 11 -8 12 -6
right_child=6 4 -4 -5 8 -7 10 -9 -10 -11 -12 -13 -14
leaf_value=0.011595368880515267 -0.0046453731894555402 0.01374583616567499 0.014030961495319417 -0.017167372702370069 0.011547781384222397 -0.0093033606941686081 -0.012878774651098397 -0.00014223249530531543 0.015135623110990261 0.012419660359482967 -0.012361054930631277 0.011568027089402381 0.011553076170161571
leaf_weight=0.60985574405640564 2.2554562576115122 1.5385055253282192 1.0369614139199259 1.5753023177385328 0.36082788743078686 1.4231356568634508 1.6972365789115431 0.63822942599654198 1.9111957177519798 0.46012854017317306 1.8376493752002714 0.51083366572856903 0.43445718009024858
leaf_count=32 18 30 29 13 23 32 21 10 11 12 28 30 27
internal_value=0 0.0049652 -0.00142824 -0.00710603 0.00868272 0.00267018 -0.00950739 0.00559315 0.0135249 0.0117821 -0.0126096 0.0115575 0.0115507
internal_weight=0 10.4994 3.86035 2.82339 6.63908 2.96164 5.79034 1.24809 3.67744 1.76625 3.53489 1.30612 0.795285
internal_count=316 249 84 55 165 62 67 42 103 92 49 80 50
is_linear=0
shrinkage=0.0113636


Tree=56
num_leaves=14
num_cat=0
split_feature=0 8 2 3 1 1 8 9 0 6 4 2 2
split_gain=2.65355 1.63925 1.06175 0.867276 0.686189 1.64802 0.469894 0.307151 0.0303645 9.81625e-05 2.8838e-06 7.01761e-07 7.54867e-09
threshold=14.500000000000002 3.5000000000000004 1.0000000180025095e-35 2.5000000000000004 12.500000000000002 11.500000000000002 2.5000000000000004 3.5000000000000004 12.500000000000002 1.0000000180025095e-35 1.5000000000000002 5.5000000000000009 1.0000000180025095e-35
decision_type=2 2 2 2 2 2 2 2 2 2 2 2 2
left_child=1 3 -3 4 5 8 -5 -4 10 -2 -1 12 -12
right_child=9 2 7 6 -6 -7 -8 -9 -10 -11 11 -13 -14
leaf_value=0.084445356940985372 -0.086599898694631888 -0.084525181644195424 -0.022193922484305788 0.038460269684131548 0.097642640374519862 -0.033611005958846391 -0.048424599914227096 0.035226495899709623 0.10866011839232013 -0.087801149905221781 0.084078291838896591 0.084261061938829263 0.084101182168512423
leaf_weight=0.38875848054885664 0.92871996201574869 1.3044094908982518 1.2444513672962785 0.83815574273467042 2.1539901597425342 1.3127886690199375 0.89261403493583202 1.3473506402224302 0.52838195860385906 0.96147192642092705 0.19308965466916561 0.28585076332092285 0.20762565545737743
leaf_count=32 28 22 26 27 23 17 15 29 3 22 22 27 23
internal_value=0 0.0198946 -0.0232052 0.0445849 0.0619709 0.0356253 -0.00634907 0.00765613 0.0923019 -0.0872109 0.084264 0.0841613 0.0840902
internal_weight=0 10.6975 3.89621 6.80126 5.07049 2.9165 1.73077 2.5918 1.60371 1.89019 1.07532 0.686566 0.400715
internal_count=316 266 77 189 147 124 42 55 107 50 104 72 45
is_linear=0
shrinkage=0.0833333


Tree=57
num_leaves=14
num_cat=0
split_feature=0 8 3 0 3 9 0 8 0 9 8 1 6
split_gain=5.39438 0.537619 0.554004 0.815315 0.32999 0.438891 0.427388 0.341279 0.329187 0.115433 0.105665 0.000369216 4.41365e-05
threshold=14.500000000000002 1.5000000000000002 2.5000000000000004 12.500000000000002 1.5000000000000002 4.5000000000000009 12.500000000000002 3.5000000000000004 11.500000000000002 3.5000000000000004 2.5000000000000004 9.5000000000000018 1.0000000180025095e-35
decision_type=2 2 2 2 2 2 2 2 2 2 2 2 2
left_child=1 8 4 9 6 7 11 10 -1 -4 -6 -3 -2
right_child=12 2 3 -5 5 -7 -8 -9 -10 -11 -12 -13 -14
leaf_value=0.012848338447960982 -0.01260115489053807 0.012955932271424003 0.0090571018807490966 0.00085576678643820014 0.011813561423454733 0.017503475992159068 0.0053179696353723421 0.0075597436538678026 0.021315059489369792 0.01398630113830001 0.016069880146535476 0.013266831929897702 -0.012736248129253176
leaf_weight=1.4799771271646087 0.70878460630774387 1.1703231036663067 1.4920722022652619 1.7824153974652288 1.7507327757775784 2.9577698595821857 1.9580940976738928 1.9623951129615305 1.2875206172466276 1.3631184659898279 1.7473801337182522 1.1216345578432081 0.74244155921041965
leaf_count=35 28 25 19 14 24 35 11 29 10 21 25 18 22
internal_value=0 0.0117762 0.0109748 0.00735383 0.0123004 0.0137046 0.009519 0.0116469 0.0167873 0.0114104 0.0139397 0.0131081 -0.0126703
internal_weight=0 20.0734 17.3059 4.63761 12.6683 8.41828 4.25005 5.46051 2.7675 2.85519 3.49811 2.29196 1.45123
internal_count=316 266 221 54 167 113 54 78 45 40 49 43 50
is_linear=0
shrinkage=0.0122449


Tree=58
num_leaves=11
num_cat=0
split_feature=0 0 7 1 0 4 2 5 8 6
split_gain=7.62738 1.67757 0.56538 0.376699 0.000143432 4.19671e-05 5.60925e-05 1.8211e-05 2.66087e-06 6.32452e-07
threshold=13.500000000000002 12.500000000000002 3.5000000000000004 13.500000000000002 11.500000000000002 1.5000000000000002 1.0000000180025095e-35 1.0000000180025095e-35 3.5000000000000004 1.0000000180025095e-35
decision_type=2 2 2 2 2 2 2 2 2 2
left_child=1 3 -2 4 5 6 -1 -7 9 -9
right_child=2 -3 -4 -5 -6 7 -8 8 -10 -11
leaf_value=0.012935802446771283 -0.014424486115509734 0.0018227333127894749 -0.0066525819458116047 0.00470573383093917 0.012985392197476926 0.012823167981468582 0.012785624850712055 0.0127330599254606 0.012776147846372694 0.012752396479303769
leaf_weight=0.77527841553092158 3.0786564350128165 5.5452034696936607 2.7860663086175919 1.0864004865288732 0.8861873410642146 0.87882377021014702 0.77917234413325787 0.62707088701426961 0.49667358212172996 0.45684380270540714
leaf_count=24 39 29 28 10 28 38 37 35 24 24
internal_value=0 0.00677644 -0.0107324 0.011365 0.0128415 0.0128097 0.0128605 0.0127776 0.0127522 0.0127412
internal_weight=0 11.5317 5.86472 5.98645 4.90005 4.01386 1.55445 2.45941 1.58059 1.08391
internal_count=316 249 67 220 210 182 61 121 83 59
is_linear=0
shrinkage=0.0125


Tree=59
num_leaves=13
num_cat=0
split_feature=0 0 4 5 3 0 1 4 2 2 5 1
split_gain=3.21331 1.12442 1.50211 1.57932 0.856305 0.00291331 1.92039e-05 1.89811e-05 1.76795e-05 3.60554e-06 4.6007e-06 3.08433e-07
threshold=13.500000000000002 11.500000000000002 1.5000000000000002 1.0000000180025095e-35 1.5000000000000002 14.500000000000002 11.500000000000002 1.5000000000000002 1.0000000180025095e-35 5.5000000000000009 1.0000000180025095e-35 8.5000000000000018
decision_type=2 2 2 2 2 2 2 2 2 2 2 2
left_child=1 6 -3 -4 -2 -6 7 8 -1 11 -11 -9
right_child=4 2 3 -5 5 -7 -8 9 -10 10 -12 -13
leaf_value=0.079575585804242704 -0.0086592621713748041 -0.026363012244932149 0.0034732394369705061 0.098715712321233773 -0.086335758337419521 -0.080417660124559698 0.079634556542167612 0.078640295341087421 0.07889685506269152 0.079168123698440035 0.078753701819974958 0.078742688262710983
leaf_weight=0.51363781467080016 1.7293124906718742 2.6698242658749223 2.2452706787735224 1.9837826630100606 0.88974922522902522 1.1582088340073822 0.32907329127192486 0.34378108475357272 0.4236421138048172 0.30296176020056009 0.34841095004230738 0.36896372865885496
leaf_count=24 18 23 24 19 11 38 17 32 32 18 29 31
internal_value=0 0.0358113 0.0193139 0.04815 -0.0489592 -0.0829888 0.0790788 0.0789993 0.0792688 0.0788142 0.0789465 0.0786933
internal_weight=0 9.52935 6.89888 4.22905 3.77727 2.04796 2.63047 2.3014 0.93728 1.36412 0.651373 0.712745
internal_count=316 249 66 43 67 49 183 166 56 110 47 63
is_linear=0
shrinkage=0.0777778


Tree=60
num_leaves=14
num_cat=0
split_feature=0 0 7 3 1 1 1 8 8 1 4 6 2
split_gain=4.80745 0.869439 0.538844 0.783138 0.269686 0.663878 0.294629 0.172492 0.144933 0.0196944 8.85812e-05 2.16334e-05 2.11525e-05
threshold=14.500000000000002 13.500000000000002 2.5000000000000004 2.5000000000000004 12.500000000000002 11.500000000000002 10.500000000000002 3.5000000000000004 3.5000000000000004 9.5000000000000018 1.5000000000000002 1.0000000180025095e-35 4.5000000000000009
decision_type=2 2 2 2 2 2 2 2 2 2 2 2 2
left_child=1 2 7 4 5 6 8 -1 9 10 -4 -2 -12
right_child=11 -3 3 -5 -6 -7 -8 -9 -10 -11 12 -13 -14
leaf_value=0.017546645749525303 -0.01239041843635127 0.0024053445090619885 0.012688886170433684 0.0055419415007982057 0.015769396398999071 0.003813498171364818 0.018646836213719598 0.012801502131236916 0.0084890536493450481 0.014766088180569722 0.012497376618455694 -0.012487887669742181 0.012584860609796361
leaf_weight=2.7246929854154684 0.67159640043973812 1.4699853546917427 0.89836256951093574 3.1247317828238002 2.6426214277744293 1.4020689763128755 1.1115134246647356 1.8869141787290571 1.400614373385906 0.80041674897074688 0.83754536509513833 0.65418115258216858 0.77380401641130447
leaf_count=36 28 17 20 38 19 15 17 17 26 16 25 22 20
internal_value=0 0.0113183 0.0120626 0.0108051 0.0124718 0.0112656 0.0130602 0.0156051 0.011742 0.0131184 0.0125929 -0.0124385 0.0125394
internal_weight=0 19.0733 17.6033 12.9917 9.86695 7.22433 5.82226 4.61161 4.71074 3.31013 2.50971 1.32578 1.61135
internal_count=316 266 249 196 158 139 124 53 107 81 65 50 45
is_linear=0
shrinkage=0.0120635


Tree=61
num_leaves=13
num_cat=0
split_feature=0 1 4 2 7 3 4 0 4 2 5 4
split_gain=3.06329 0.991911 1.41988 1.60064 0.945025 0.311935 0.64059 0.168876 1.40714e-05 1.07515e-05 3.75429e-06 5.48024e-07
threshold=13.500000000000002 11.500000000000002 1.5000000000000002 5.5000000000000009 3.5000000000000004 1.5000000000000002 2.5000000000000004 12.500000000000002 1.5000000000000002 1.0000000180025095e-35 1.0000000180025095e-35 2.5000000000000004
decision_type=2 2 2 2 2 2 2 2 2 2 2 2
left_child=1 5 -3 -4 -2 6 -1 8 9 -7 -10 -12
right_child=4 2 3 -5 -6 7 -8 -9 10 -11 11 -13
leaf_value=-0.023462605806365215 -0.081432428721695108 -0.029143466216558535 0.09080145058732951 -0.00096612946968790536 -0.0040211551528331812 0.075678963802420049 0.083542231882338475 0.1249125787477752 0.075177156954032265 0.075172248347086246 0.074974934269071675 0.07483570806754454
leaf_weight=0.52108752168714845 1.6920726541429769 2.0718438532203436 2.1135868970304728 2.038581826724112 1.752922700718045 0.40273739397525821 0.73808363918215036 0.45923680067062367 0.39360275026410796 0.52876344323158264 0.24858749005943537 0.40717975609004498
leaf_count=18 39 22 24 21 28 18 33 2 25 35 18 33
internal_value=0 0.0388271 0.0208172 0.0457465 -0.0420431 0.0691286 0.03926 0.0845417 0.0751823 0.0753913 0.0749968 0.0748885
internal_weight=0 9.92329 6.22401 4.15217 3.445 3.69928 1.25917 2.44011 1.98087 0.931501 1.04937 0.655767
internal_count=316 249 67 45 67 182 51 131 129 53 76 51
is_linear=0
shrinkage=0.0738889


Tree=62
num_leaves=14
num_cat=0
split_feature=0 0 1 2 1 0 6 4 2 2 5 8 3
split_gain=2.72742 1.37447 1.12803 0.424398 0.0038063 0.000173153 4.69548e-05 1.80469e-05 1.47481e-05 4.35582e-06 4.18353e-06 1.56524e-06 1.27489e-07
threshold=14.500000000000002 12.500000000000002 14.500000000000002 3.5000000000000004 13.500000000000002 11.500000000000002 1.0000000180025095e-35 1.5000000000000002 1.0000000180025095e-35 6.5000000000000009 1.0000000180025095e-35 3.5000000000000004 1.5000000000000002
decision_type=2 2 2 2 2 2 2 2 2 2 2 2 2
left_child=1 2 4 -3 5 7 -2 8 -1 11 -11 12 -9
right_child=6 3 -4 -5 -6 -7 -8 9 -10 10 -12 -13 -14
leaf_value=0.074402562336151071 -0.075035160027152159 0.028061577034869323 -0.046713298709284749 -0.0075123771936748632 0.080950104550027102 0.075182431472183106 -0.075849396497973329 0.073522766851102705 0.073848642138785101 0.074076976392878191 0.073698180639338667 0.073775594669145586 0.07359041736565651
leaf_weight=0.50800625979900293 0.73777970299124784 3.3976011797785759 0.45072611421346653 3.7129482515156269 0.50605688244104374 0.69682673644274462 0.76130315661430359 0.23168821167200782 0.50913694035261869 0.29410235397517681 0.32435920275747776 0.26704561989754438 0.40494122821837664
leaf_count=24 28 22 3 24 7 28 22 22 37 17 26 20 36
internal_value=0 0.0289621 0.0619912 0.00948576 0.0750841 0.0741668 -0.0754487 0.0738881 0.0741253 0.0737296 0.0738783 0.0736278 0.0735658
internal_weight=0 11.3034 4.19289 7.11055 3.74216 3.23611 1.49908 2.53928 1.01714 1.52214 0.618462 0.903675 0.636629
internal_count=316 266 220 46 217 210 50 182 61 121 43 78 58
is_linear=0
shrinkage=0.0727344


Tree=63
num_leaves=14
num_cat=0
split_feature=0 0 1 3 0 1 0 4 2 2 5 8 3
split_gain=4.36626 1.34417 1.16513 0.728943 0.00394084 0.00357891 0.000340682 3.69279e-05 3.05342e-05 9.00932e-06 8.57367e-06 3.14753e-06 2.58916e-07
threshold=13.500000000000002 12.500000000000002 14.500000000000002 1.5000000000000002 14.500000000000002 13.500000000000002 11.500000000000002 1.5000000000000002 1.0000000180025095e-35 6.5000000000000009 1.0000000180025095e-35 3.5000000000000004 1.5000000000000002
decision_type=2 2 2 2 2 2 2 2 2 2 2 2 2
left_child=1 2 5 -2 -5 6 7 8 -1 11 -11 12 -9
right_child=3 -3 -4 4 -6 -7 -8 9 -10 10 -12 -13 -14
leaf_value=0.019556110107981681 -0.004512400674165736 0.003054020226798198 -0.012162404541366899 -0.021333648513878749 -0.019739703466202095 0.021163393296212245 0.019807793401072922 0.019263265555793999 0.019370877922582987 0.019447546819293258 0.019321675073321044 0.019346508661482995 0.019285610193425382
leaf_weight=0.6406232994049772 1.9050363227725036 5.2434981390833855 0.45655752718448628 0.97243327647447619 1.320084113627672 0.50950259342789639 0.87168621364980925 0.2944185910746453 0.6444401852786541 0.37187822163105 0.41153697855770588 0.33812258299440145 0.51408673264086246
leaf_count=24 18 29 3 11 38 7 28 22 37 17 26 20 36
internal_value=0 0.00979303 0.0167863 -0.0131981 -0.0204158 0.0196618 0.0194746 0.0193843 0.0194632 0.0193318 0.0193814 0.0192978 0.0192775
internal_weight=0 10.2964 5.05285 4.19755 2.29252 4.5963 4.08679 3.21511 1.28506 1.93004 0.783415 1.14663 0.808505
internal_count=316 249 220 67 49 217 210 182 61 121 43 78 58
is_linear=0
shrinkage=0.019


Tree=64
num_leaves=13
num_cat=0
split_feature=0 0 3 1 7 0 4 2 2 5 8 3
split_gain=4.7237 1.55452 0.839873 0.482426 0.000789703 0.000342782 7.4863e-05 6.38369e-05 1.84062e-05 1.69503e-05 5.89078e-06 4.98382e-07
threshold=13.500000000000002 12.500000000000002 1.5000000000000002 13.500000000000002 3.5000000000000004 11.500000000000002 1.5000000000000002 1.0000000180025095e-35 6.5000000000000009 1.0000000180025095e-35 3.5000000000000004 1.5000000000000002
decision_type=2 2 2 2 2 2 2 2 2 2 2 2
left_child=1 3 -2 5 -4 6 7 -1 10 -10 11 -8
right_child=2 -3 4 -5 -6 -7 8 -9 9 -11 -12 -13
leaf_value=0.012965055942196799 -0.0022313094594717084 0.0020478322007510389 -0.013169325261657788 0.0033573386247068727 -0.013623186203869434 0.013081127139193988 0.012719822864374751 0.012807616883732265 0.012872541070008084 0.012768605443565013 0.012786862902848032 0.012737998495226558
leaf_weight=0.80233285762369433 1.8762878552079207 5.4004934206604958 1.1865058876574042 0.99893249943852414 1.2097820304334161 0.9754749722778796 0.37094431184232257 0.80731471627950668 0.4656617622822522 0.51778110675513744 0.42326220124959935 0.64664933085441589
leaf_count=24 18 29 29 10 20 28 22 37 17 26 20 36
internal_value=0 0.00691469 -0.00849444 0.0112892 -0.0133985 0.0128709 0.01282 0.0128861 0.0127761 0.0128178 0.0127477 0.0127314
internal_weight=0 11.4088 4.27258 6.00835 2.39629 5.00942 4.03395 1.60965 2.4243 0.983443 1.44086 1.01759
internal_count=316 249 67 220 49 210 182 61 121 43 78 58
is_linear=0
shrinkage=0.0125


Tree=65
num_leaves=13
num_cat=0
split_feature=0 0 7 4 3 0 1 4 2 2 5 1
split_gain=2.73261 1.0292 1.25899 1.93218 0.88355 0.00213875 2.31381e-05 1.87918e-05 1.88567e-05 3.09481e-06 3.7803e-06 2.42185e-07
threshold=13.500000000000002 11.500000000000002 2.5000000000000004 1.5000000000000002 1.5000000000000002 14.500000000000002 11.500000000000002 1.5000000000000002 1.0000000180025095e-35 5.5000000000000009 1.0000000180025095e-35 8.5000000000000018
decision_type=2 2 2 2 2 2 2 2 2 2 2 2
left_child=1 6 -3 -4 -2 -6 7 8 -1 11 -11 -9
right_child=4 2 3 -5 5 -7 -8 9 -10 10 -12 -13
leaf_value=0.082859183948104626 -0.0031241724914480031 0.07368958922539981 -0.059331132834209259 0.045112233623898379 -0.088926212676777763 -0.083248089357823962 0.082965771780744157 0.08188716053099894 0.082120053339111168 0.082396785038156992 0.082000192622083079 0.08198246410917634
leaf_weight=0.5083781685680141 1.6387000009417545 2.156336679123342 2.0820349063724279 2.6302767507731915 0.79935886710882165 0.9554505031555891 0.33855282422155131 0.33954646531492449 0.40837446693331003 0.29284107219427824 0.34168270789086819 0.36088045034557581
leaf_count=24 18 18 17 31 11 38 17 32 32 18 29 31
internal_value=0 0.0388325 0.0224248 -0.00103385 -0.0458944 -0.0858346 0.0823414 0.0822476 0.0825299 0.0820536 0.0821832 0.0819363
internal_weight=0 9.4589 6.86865 4.71231 3.39351 1.75481 2.59026 2.2517 0.916753 1.33495 0.634524 0.700427
internal_count=316 249 66 48 67 49 183 166 56 110 47 63
is_linear=0
shrinkage=0.081


Tree=66
num_leaves=14
num_cat=0
split_feature=0 0 1 2 1 3 0 4 2 2 5 8 3
split_gain=2.46226 1.43236 1.06459 0.443351 0.00247634 0.000314305 0.000215326 1.33035e-05 1.09231e-05 3.22552e-06 3.07223e-06 1.13837e-06 9.30769e-08
threshold=14.500000000000002 12.500000000000002 14.500000000000002 3.5000000000000004 13.500000000000002 1.5000000000000002 11.500000000000002 1.5000000000000002 1.0000000180025095e-35 6.5000000000000009 1.0000000180025095e-35 3.5000000000000004 1.5000000000000002
decision_type=2 2 2 2 2 2 2 2 2 2 2 2 2
left_child=1 2 4 -3 6 -2 7 8 -1 11 -11 12 -9
right_child=5 3 -4 -5 -6 -7 -8 9 -10 10 -12 -13 -14
leaf_value=0.081193984336252245 -0.083941227427685533 0.027572684641396433 -0.04859176714374086 -0.012655886151328833 0.087324052462891655 -0.081538136270467507 0.082295204387043755 0.080326488553657066 0.080646588352174142 0.080872391998187437 0.080499699795645668 0.080574161120410021 0.080392847526085096
leaf_weight=0.46095275320112694 0.57144971564412184 3.33008773624897 0.44697218388319004 3.6153929941356182 0.45992847904562939 0.8666912205517292 0.68210404831916083 0.21029449161142089 0.46169263776391745 0.26679798029363155 0.29437017906457186 0.24212414305657148 0.36741069331765175
leaf_count=24 12 22 3 24 7 38 28 22 37 17 26 20 36
internal_value=0 0.028281 0.0669081 0.00663215 0.0818907 -0.082493 0.0810538 0.0806862 0.0809201 0.08053 0.0806769 0.0804294 0.0803687
internal_weight=0 10.8381 3.89265 6.94548 3.44568 1.43814 2.98575 2.30364 0.922645 1.381 0.561168 0.819829 0.577705
internal_count=316 266 220 46 217 50 210 182 61 121 43 78 58
is_linear=0
shrinkage=0.0795455


Tree=67
num_leaves=14
num_cat=0
split_feature=0 0 1 2 1 3 0 4 2 2 5 8 3
split_gain=2.16208 1.33834 0.974616 0.359027 0.00182423 0.000230264 0.000159543 9.81841e-06 8.04943e-06 2.38102e-06 2.26635e-06 8.41083e-07 6.87967e-08
threshold=14.500000000000002 12.500000000000002 14.500000000000002 3.5000000000000004 13.500000000000002 1.5000000000000002 11.500000000000002 1.5000000000000002 1.0000000180025095e-35 6.5000000000000009 1.0000000180025095e-35 3.5000000000000004 1.5000000000000002
decision_type=2 2 2 2 2 2 2 2 2 2 2 2 2
left_child=1 2 4 -3 6 -2 7 8 -1 11 -11 12 -9
right_child=5 3 -4 -5 -6 -7 -8 9 -10 10 -12 -13 -14
leaf_value=0.081709521770082047 -0.084198465346831716 0.025024554556137845 -0.043168797609990997 -0.01146400456931768 0.087266325160176267 -0.082022350687992893 0.082713935374282621 0.080920241059189296 0.081211795049781127 0.081417093152193837 0.081077997173683566 0.081145799394594362 0.080980689173076006
leaf_weight=0.41786766704171885 0.51964646950364179 3.329791247844696 0.45606548339128483 3.6217288710176945 0.4197145178914069 0.78598653711378574 0.61908451560884703 0.19045112933963515 0.41827843990176916 0.24177248403429985 0.26664568018168211 0.21933875698596239 0.33276683278381824
leaf_count=24 12 22 3 24 7 38 28 22 37 17 26 20 36
internal_value=0 0.0265369 0.0663654 0.00601408 0.0823462 -0.0828885 0.0815832 0.0812477 0.0814605 0.0811055 0.0812393 0.081014 0.0809587
internal_weight=0 10.5335 3.58199 6.95152 3.12592 1.30563 2.70621 2.08712 0.836146 1.25097 0.508418 0.742557 0.523218
internal_count=316 266 220 46 217 50 210 182 61 121 43 78 58
is_linear=0
shrinkage=0.0802083


Tree=68
num_leaves=14
num_cat=0
split_feature=0 0 1 6 1 0 1 8 3 4 4 2 3
split_gain=3.53461 1.20081 1.22851 0.75889 0.00265513 0.000317213 8.93532e-06 6.95677e-06 4.45931e-06 4.11706e-06 8.42729e-07 4.63854e-07 1.56204e-08
threshold=13.500000000000002 12.500000000000002 14.500000000000002 1.0000000180025095e-35 13.500000000000002 11.500000000000002 11.500000000000002 3.5000000000000004 2.5000000000000004 2.5000000000000004 1.5000000000000002 6.5000000000000009 1.5000000000000002
decision_type=2 2 2 2 2 2 2 2 2 2 2 2 2
left_child=1 2 4 -2 5 6 7 8 10 -9 -1 12 -12
right_child=3 -3 -4 -5 -6 -7 -8 9 -10 -11 11 -13 -14
leaf_value=0.01502884612596439 -0.016549918413958468 0.0021914601775904121 -0.010329586288160693 -0.0033691129216932279 0.016297311181136483 0.015389635597321325 0.015126610587739859 0.015113264944761959 0.015069257292043885 0.015042559788589056 0.014998083593921175 0.015019284656585939 0.014993117934218517
leaf_weight=0.42419401928782441 1.8963883090764293 5.3833006247878075 0.45903069525957096 1.9389238469302654 0.48721259832382191 0.7933593252673744 0.31408752501010884 0.39164551161229599 0.39048827346414317 0.33566259127110243 0.26430532895028591 0.26476661488413811 0.2933580931276083
leaf_count=31 38 29 3 29 7 28 16 21 24 23 22 20 25
internal_value=0 0.00688915 0.0126131 -0.00988642 0.0152732 0.0151294 0.0150524 0.0150425 0.0150256 0.0150806 0.0150119 0.0150031 0.0149955
internal_weight=0 9.80141 4.41811 3.83531 3.95908 3.47187 2.67851 2.36442 1.63711 0.727308 1.24662 0.82243 0.557663
internal_count=316 249 220 67 217 210 182 166 122 44 98 67 47
is_linear=0
shrinkage=0.0148148


Tree=69
num_leaves=13
num_cat=0
split_feature=0 0 1 6 1 0 4 2 2 5 8 3
split_gain=2.99771 1.13947 1.08928 0.798496 0.00167834 0.000282716 1.56563e-05 1.27479e-05 4.09163e-06 3.55181e-06 1.54979e-06 1.28949e-07
threshold=12.500000000000002 13.500000000000002 14.500000000000002 1.0000000180025095e-35 13.500000000000002 11.500000000000002 1.5000000000000002 1.0000000180025095e-35 6.5000000000000009 1.0000000180025095e-35 3.5000000000000004 1.5000000000000002
decision_type=2 2 2 2 2 2 2 2 2 2 2 2
left_child=2 -2 4 -3 5 6 7 -1 10 -10 11 -8
right_child=1 3 -4 -5 -6 -7 8 -9 9 -11 -12 -13
leaf_value=0.017043021127557907 0.0020485411884657457 -0.018423740869420037 -0.010282525246215595 -0.0026211392987365739 0.018130855201999425 0.017298789399191928 0.016853156889061097 0.016925086921276072 0.016974069585396323 0.016894699318256278 0.016910120942418942 0.016868507558865625
leaf_weight=0.50050499103963575 5.2214240506291372 1.7026592716574669 0.45062209665775288 1.8568376563489437 0.4220769740641116 0.75577048305422057 0.23917259741574504 0.51819540187716484 0.29438708908855915 0.33464633021503687 0.27374868653714657 0.41708723083138466
leaf_count=24 29 38 3 29 7 28 22 37 17 26 20 36
internal_value=0 -0.00290859 0.0142028 -0.0101802 0.0171407 0.0170153 0.0169322 0.016983 0.016899 0.0169318 0.0168768 0.0168629
internal_weight=0 8.78092 4.20621 3.5595 3.75559 3.33351 2.57774 1.0187 1.55904 0.629033 0.930009 0.65626
internal_count=316 96 220 67 217 210 182 61 121 43 78 58
is_linear=0
shrinkage=0.0166667


Tree=70
num_leaves=13
num_cat=0
split_feature=0 0 1 7 1 0 4 2 2 5 8 3
split_gain=3.45011 1.25453 0.818998 0.707059 0.00197358 0.00023168 1.45541e-05 1.26558e-05 3.87953e-06 3.10166e-06 1.22366e-06 1.08141e-07
threshold=13.500000000000002 12.500000000000002 14.500000000000002 3.5000000000000004 13.500000000000002 11.500000000000002 1.5000000000000002 1.0000000180025095e-35 6.5000000000000009 1.0000000180025095e-35 3.5000000000000004 1.5000000000000002
decision_type=2 2 2 2 2 2 2 2 2 2 2 2
left_child=1 2 4 -2 5 6 7 -1 10 -10 11 -8
right_child=3 -3 -4 -5 -6 -7 8 -9 9 -11 -12 -13
leaf_value=0.025552387551375084 -0.028273573611806394 0.0032458372907968394 -0.0088458575584878102 -0.0066212753768198854 0.027289683985525101 0.025894062301546228 0.025273899026786274 0.025373926620473743 0.025447502328761185 0.025334929866888286 0.025351244950508847 0.025295213952135825
leaf_weight=0.49018690548837129 1.7819832973182212 5.1593040078878403 0.48504585027694691 2.001108855009079 0.43765617534518231 0.7276407117024063 0.23429391440004088 0.50343168620020151 0.2867719791829586 0.32786026783287525 0.2655168566852808 0.40752388536930084
leaf_count=24 39 29 3 28 7 28 22 37 17 26 20 36
internal_value=0 0.0114855 0.02169 -0.0168203 0.0257138 0.0255012 0.0253875 0.025462 0.025339 0.0253875 0.0253061 0.0252874
internal_weight=0 9.32523 4.16593 3.78309 3.68088 3.24323 2.51559 0.993619 1.52197 0.614632 0.907335 0.641818
internal_count=316 249 220 67 217 210 182 61 121 43 78 58
is_linear=0
shrinkage=0.025


Tree=71
num_leaves=13
num_cat=0
split_feature=0 0 1 6 1 0 4 2 2 5 8 3
split_gain=2.32925 0.984492 0.897923 0.828818 0.00141256 0.000149282 8.207e-06 6.69034e-06 2.14437e-06 1.84789e-06 8.05349e-07 6.72369e-08
threshold=12.500000000000002 13.500000000000002 14.500000000000002 1.0000000180025095e-35 13.500000000000002 11.500000000000002 1.5000000000000002 1.0000000180025095e-35 6.5000000000000009 1.0000000180025095e-35 3.5000000000000004 1.5000000000000002
decision_type=2 2 2 2 2 2 2 2 2 2 2 2
left_child=2 -2 4 -3 5 6 7 -1 10 -10 11 -8
right_child=1 3 -4 -5 -6 -7 8 -9 9 -11 -12 -13
leaf_value=0.067877958493843801 0.0090866266132409619 -0.073518208606626723 -0.030417828530904915 -0.0060975206764056853 0.072067757299539986 0.068703211471072556 0.067267290433228655 0.067498324877593885 0.067655675220237271 0.067401190400331545 0.067449968897166035 0.067316595361487569
leaf_weight=0.40608690772205847 5.1698328554630262 1.526309042237699 0.47157254815101612 1.7276845630258322 0.39311501383781422 0.61536380928009737 0.19340516813099362 0.41939811781048775 0.23846334964036942 0.2708556093275547 0.2214943440631032 0.33732870500534773
leaf_count=24 29 38 3 29 7 28 22 37 17 26 20 36
internal_value=0 -0.0089947 0.0552788 -0.0377217 0.0683339 0.0677907 0.0675217 0.0676851 0.0674147 0.0675203 0.0673432 0.0672986
internal_weight=0 8.42383 3.56708 3.25399 3.09551 2.7024 2.08703 0.825485 1.26155 0.509319 0.752228 0.530734
internal_count=316 96 220 67 217 210 182 61 121 43 78 58
is_linear=0
shrinkage=0.0666667


Tree=72
num_leaves=14
num_cat=0
split_feature=0 8 1 6 9 1 0 4 2 2 5 8 3
split_gain=2.07498 0.915415 0.832397 0.518951 0.246633 0.00104143 0.000110572 6.05961e-06 4.93327e-06 1.58349e-06 1.36368e-06 5.95095e-07 4.97016e-08
threshold=12.500000000000002 3.5000000000000004 14.500000000000002 1.0000000180025095e-35 3.5000000000000004 13.500000000000002 11.500000000000002 1.5000000000000002 1.0000000180025095e-35 6.5000000000000009 1.0000000180025095e-35 3.5000000000000004 1.5000000000000002
decision_type=2 2 2 2 2 2 2 2 2 2 2 2 2
left_child=2 3 5 -2 -3 6 7 8 -1 11 -11 12 -9
right_child=1 4 -4 -5 -6 -7 -8 9 -10 10 -12 -13 -14
leaf_value=0.08281880499524491 -0.022054131440010748 -0.067212241709290882 -0.032956923360171204 0.031523688770340369 -0.021688477934328588 0.087427067372554762 0.083730948808534406 0.082145130359204552 0.082400231479467359 0.082573699733581099 0.082292968938844441 0.082346807977660044 0.082199574927320745
leaf_weight=0.36804539244622203 1.9340358022600392 1.5919413678348064 0.47838038951158512 3.1635340042412281 1.5687049506232142 0.35823682323098172 0.55831665452569712 0.17514267750084378 0.37991425115615129 0.21605966426432133 0.24532412551343441 0.20062898844480515 0.30549641652032733
leaf_count=24 25 21 3 31 19 7 28 22 37 17 26 20 36
internal_value=0 -0.0101654 0.0663931 0.0111961 -0.0446177 0.0833237 0.0827234 0.0824259 0.0826062 0.0823079 0.0824244 0.0822289 0.0821797
internal_weight=0 8.25822 3.28555 5.09757 3.16065 2.80716 2.44893 1.89061 0.74796 1.14265 0.461384 0.681268 0.480639
internal_count=316 96 220 56 40 217 210 182 61 121 43 78 58
is_linear=0
shrinkage=0.0814815


Tree=73
num_leaves=15
num_cat=0
split_feature=0 0 1 3 0 1 0 1 8 3 4 4 5 4
split_gain=3.2785 1.23822 1.04891 0.820443 0.003188 0.00142219 0.000298167 7.16369e-06 6.63251e-06 5.05113e-06 3.95546e-06 9.12203e-07 5.09512e-07 1.48068e-08
threshold=12.500000000000002 13.500000000000002 14.500000000000002 1.5000000000000002 14.500000000000002 13.500000000000002 11.500000000000002 11.500000000000002 3.5000000000000004 2.5000000000000004 2.5000000000000004 1.5000000000000002 1.0000000180025095e-35 3.5000000000000004
decision_type=2 2 2 2 2 2 2 2 2 2 2 2 2 2
left_child=2 -2 5 -3 -5 6 7 8 9 11 -10 -1 -13 -14
right_child=1 3 -4 4 -6 -7 -8 -9 10 -11 -12 12 13 -15
leaf_value=0.011270975813366091 0.0012433944004684241 -0.001517757760701468 -0.0060636531334966942 -0.012368357654705885 -0.011483294752362995 0.012031982439791649 0.011533181460779855 0.011338404693795861 0.011333313598229099 0.011303477897873192 0.011281153235035616 0.011263165745990561 0.01124616167613734 0.011242438808252842
leaf_weight=0.42224747687578446 5.2782950028777105 1.7600061781704428 0.47588246315717686 0.89773416891694102 1.1410726625472305 0.41600410640239704 0.79395483434200276 0.30529362801462401 0.38855108525603999 0.39259791746735562 0.33357783872634172 0.27450812328606844 0.30774770397692919 0.23081220407038927
leaf_count=31 29 18 3 11 38 7 28 16 21 24 23 21 26 20
internal_value=0 -0.00223805 0.0095019 -0.00707538 -0.011873 0.0114183 0.0113443 0.0112878 0.0112812 0.0112688 0.0113092 0.0112577 0.0112508 0.0112446
internal_weight=0 9.07711 4.34118 3.79881 2.03881 3.86529 3.44929 2.65534 2.35004 1.62791 0.722129 1.23532 0.813068 0.53856
internal_count=316 96 220 67 49 217 210 182 166 122 44 98 67 46
is_linear=0
shrinkage=0.0111111


Tree=74
num_leaves=13
num_cat=0
split_feature=0 8 0 3 3 4 3 1 4 2 5 8
split_gain=1.99387 1.31432 1.35808 1.09446 0.684822 0.189174 0.000225261 5.77633e-06 4.54634e-06 3.99997e-06 7.78013e-07 1.59352e-07
threshold=14.500000000000002 1.5000000000000002 11.500000000000002 2.5000000000000004 1.5000000000000002 2.5000000000000004 1.5000000000000002 11.500000000000002 1.5000000000000002 1.0000000180025095e-35 1.0000000180025095e-35 3.5000000000000004
decision_type=2 2 2 2 2 2 2 2 2 2 2 2
left_child=1 5 7 4 -4 -1 -2 8 9 -3 -10 -12
right_child=6 2 3 -5 -6 -7 -8 -9 10 -11 11 -13
leaf_value=0.066955075910381981 -0.08504889113235313 0.082263567466685603 -0.017744971317599514 -0.047811458666252978 0.043471742662555345 0.13121934807450722 -0.082868065327084586 0.082336061201958105 0.081869234370160471 0.081815654405151622 0.081661517434169301 0.08175419502663793
leaf_weight=0.55099997855722793 0.51476848684251375 0.29206150304525891 1.9898647265508769 2.355688814073801 3.0165637237951159 0.66113735688850284 0.78408269118517637 0.21179618500173081 0.25926655996590853 0.23692365176975727 0.31658708676695824 0.19776195706799626
leaf_count=20 12 20 19 21 33 25 38 15 26 25 40 22
internal_value=0 0.0228909 0.0120871 -0.00228246 0.0191404 0.102007 -0.0837324 0.0819437 0.08188 0.082063 0.0817548 0.0816972
internal_weight=0 10.0887 8.87651 7.36212 5.00643 1.21214 1.29885 1.5144 1.3026 0.528985 0.773616 0.514349
internal_count=316 266 221 73 52 45 50 148 133 45 88 62
is_linear=0
shrinkage=0.081


Tree=75
num_leaves=12
num_cat=0
split_feature=0 1 4 2 7 3 8 0 3 8 4
split_gain=2.07368 0.932106 1.22512 1.62237 0.798833 0.329489 0.764369 0.0849431 3.53734e-06 2.26163e-06 7.87551e-07
threshold=13.500000000000002 11.500000000000002 1.5000000000000002 5.5000000000000009 3.5000000000000004 1.5000000000000002 3.5000000000000004 12.500000000000002 2.5000000000000004 3.5000000000000004 1.5000000000000002
decision_type=2 2 2 2 2 2 2 2 2 2 2
left_child=1 5 -3 -4 -2 6 -1 8 9 10 -7
right_child=4 2 3 -5 -6 7 -8 -9 -10 -11 -12
leaf_value=0.037487971661626748 -0.03705883976140583 -0.016075872045959234 0.039887294636269624 -0.0046759397159312323 -0.0033547764023441986 0.033679683235326073 -0.021666945207551809 0.05093507561227964 0.033793653907742416 0.033752720914099796 0.033602660327622429
